/*This file is automatically generated from a Keras model*/

#ifdef HAVE_CONFIG_H
#include "config.h"
#endif

#include "rnn.h"
#include "rnn_data.h"

static const rnn_weight input_dense_weights[1008] = {
   40, -16, -28, -51, 48, 22, 14, -29,
   -12, -85, 0, -2, 8, 58, -2, -22,
   -45, 11, 2, -2, -12, 1, 17, -24,
   -32, -53, -65, 83, -12, 62, -73, 2,
   48, 62, -45, -59, 17, 48, -40, -12,
   32, 39, 37, 50, -67, -75, -53, 9,
   11, 7, -61, 70, 17, 54, 53, 83,
   88, -59, 45, -73, 53, 60, 13, 84,
   63, -3, -8, -56, 15, -54, 65, 18,
   34, 37, -22, 23, 33, -27, 30, -24,
   19, 48, 55, 37, -62, 63, 62, 58,
   -2, -55, -27, 55, 66, -45, -41, 82,
   -70, -13, 47, 51, -10, 34, -67, 75,
   -79, 17, -4, 17, -22, 11, -61, -13,
   -77, 54, 77, 32, -42, 20, -69, 2,
   8, 61, -69, -26, -10, 21, -59, 21,
   102, -58, 51, -14, -80, -95, 64, 12,
   10, 57, -59, 50, -37, 73, 18, 56,
   83, 53, 2, -15, -55, 10, 50, 8,
   100, -30, 24, -28, 55, -11, 35, 53,
   30, -69, 67, -71, 79, 52, 15, -7,
   -42, -45, 62, 18, -101, -12, 17, 43,
   -37, 68, -22, 14, 43, -76, 17, 27,
   9, 32, 41, 58, 75, -40, -24, 50,
   58, 20, -8, -12, -69, 51, 89, -53,
   39, 0, 89, -17, -6, 27, -44, 63,
   -43, -40, 68, -20, -9, 6, 7, -14,
   10, 24, -23, -46, -43, 0, -34, -4,
   38, 30, 104, 40, 52, -99, 107, -35,
   -1, -98, -38, -36, 26, 4, 19, -82,
   58, -21, 38, 53, 42, 45, -16, -18,
   -30, -47, 32, -36, -29, -28, -42, 31,
   -2, -4, 11, 31, 39, 54, 41, -62,
   -27, -48, 47, 8, 37, -61, -12, 6,
   23, -56, -45, -54, -45, 57, 13, 31,
   36, -4, -42, -4, 2, -36, 64, -28,
   44, 21, 68, -48, 15, 19, -14, 86,
   85, -4, 74, 57, -22, -60, 30, 25,
   22, -65, -13, 2, 35, -23, 15, 18,
   -6, -8, -2, 3, 93, -61, -45, -99,
   6, 54, 38, 40, 69, 35, 20, 41,
   -89, -38, 24, -75, 93, -53, -65, -40,
   -42, -79, -54, 61, 26, 29, 15, -35,
   -23, 48, -13, -58, 39, -56, 65, 23,
   4, -12, 93, 26, -14, -7, -31, 37,
   -47, -13, -31, 3, 88, -18, 49, -21,
   43, -46, -16, -10, -44, 9, 17, -33,
   13, -19, 16, 29, -23, 49, -9, -22,
   71, 2, -1, -63, 32, -91, -64, -27,
   103, 52, -52, -14, 4, 17, 33, -19,
   12, -66, -34, -81, 44, 10, -66, 66,
   92, -16, -21, -93, 32, -108, 8, -60,
   -20, 58, 75, -16, -15, -8, 16, 72,
   7, -97, 10, 37, -12, -20, 60, 32,
   -24, 61, 78, 5, -71, 31, 35, 48,
   -40, 54, 45, 72, 52, -87, 6, -6,
   -70, -53, 43, -13, 46, 75, 46, 24,
   -20, -8, 78, -24, -71, 23, -54, 73,
   27, -50, 42, 79, 26, -45, -47, 35,
   91, 20, 32, -51, -36, -38, 84, -36,
   50, -55, -50, -30, 15, -104, -55, 22,
   -37, 61, 70, -30, 37, 48, 10, 18,
   59, -26, 61, 30, -37, 78, 0, 72,
   7, -54, 77, -73, -52, -72, -53, -25,
   -32, -48, -11, 88, -89, -81, 50, 39,
   -3, 2, 45, -70, 26, 23, 4, -77,
   -63, -49, -66, -30, 101, 95, -55, -54,
   27, -5, -117, -95, 77, -32, -70, 30,
   -20, 13, 95, 66, -80, 11, -66, -27,
   -60, -75, 4, 70, 0, 62, 90, -4,
   -52, 27, 9, -114, 56, 51, -15, -61,
   -39, 59, 51, 47, -95, -34, -35, -24,
   -6, -52, 74, 52, 38, 8, 17, 69,
   54, 63, 27, 70, 58, 35, 37, 37,
   -81, -51, -11, 21, -57, -27, 39, -38,
   47, -6, 7, 23, -66, -53, 41, 55,
   30, -74, -31, -53, -50, 19, 59, -42,
   -7, -79, -57, 35, 37, 34, -30, 17,
   66, 68, -6, 3, 92, 87, 8, 39,
   -75, 85, -104, -60, -27, -5, -70, -83,
   34, 32, 50, 26, -85, -90, -44, 35,
   -17, -27, 45, -73, 28, -112, 52, 82,
   26, 5, -3, -5, -30, 16, -23, -9,
   -15, -2, -37, 71, 40, 29, 81, 31,
   15, -65, 8, -82, -13, -40, -78, 21,
   46, 28, 56, 3, -80, -29, -14, 27,
   -1, -47, 31, 14, 52, -11, 23, -68,
   94, 36, -44, -49, 46, -69, 59, 25,
   -31, -50, 16, 65, -6, -35, 8, -38,
   87, -76, 14, -82, 51, 65, 25, -33,
   -3, 59, 45, 94, -33, 6, -21, 57,
   40, 91, -34, -26, -35, 34, 13, 32,
   60, 51, 25, 38, -34, -59, -70, 56,
   2, -73, 1, 62, 90, 9, -68, -47,
   16, -62, -12, -56, 52, -26, -62, -40,
   51, 41, 41, 4, 19, 35, -51, 85,
   61, 21, 49, 26, 0, -38, 45, 50,
   -53, -96, -22, 45, -39, -10, 5, 43,
   -33, -11, 9, -59, 25, -52, -60, -45,
   -41, -64, -44, -18, -42, 55, -58, 35,
   34, -10, -42, 26, -52, -22, -12, -16,
   70, 4, -44, 36, 11, -12, -10, 64,
   49, 31, 35, -32, 81, -23, -58, 24,
   -14, -56, 21, -52, -53, -31, -22, -77,
   -46, 114, -9, 13, 8, 25, 40, -21,
   -86, -26, 33, 23, 91, 31, -24, 77,
   -58, 30, 18, 44, -18, 58, -86, 39,
   -65, 93, 18, -47, -35, -9, -36, 67,
   15, -14, 21, -21, -76, -101, 37, -19,
   50, 16, 60, 9, 64, -67, 22, 49,
   -8, -114, 44, -6, 70, 83, 37, -6,
   -33, 5, -15, 47, 31, -105, -51, -79,
   -13, -51, 53, 19, -16, 46, -19, 60,
   -43, -12, -35, -8, 20, -55, -13, -49,
   -12, 35, -26, -23, -8, -57, -6, -69,
   -11, 29, 46, -57, -6, -15, 58, 35,
   -27, -31, 75, -68, -48, 30, -54, -23,
   82, -18, 6, -29, -43, -34, 69, 45,
   43, -6, -36, -15, 47, -38, 36, 68,
   36, -110, -14, 37, -4, 3, -37, -50,
   -10, 64, 16, 48, -89, 52, -34, 74,
   3, 42, 6, 84, -51, -23, 29, 51,
   -54, -97, -72, -65, 89, -79, 58, -61,
   -41, 32, 44, 86, 51, 44, 17, -13,
   -12, -76, -83, 22, -30, 56, 39, -93,
   -85, -96, 43, 28, -10, -10, 27, -61
};

static const rnn_weight input_dense_bias[24] = {
   -1, 2, -11, 1, 26, 6, 3, -21,
   -4, -17, -3, -4, -18, 2, -24, -30,
   1, 35, 1, 4, -1, -14, -9, 10
};

static const DenseLayer input_dense = {
   input_dense_bias,
   input_dense_weights,
   42, 24, ACTIVATION_TANH
};

static const rnn_weight vad_gru_weights[1728] = {
   57, 76, 45, 16, -17, 38, 51, 58,
   27, -1, 55, 18, 67, 55, -2, 28,
   -53, -16, 17, 42, -8, 10, 18, 43,
   2, 23, -36, -14, 16, -24, 17, 63,
   -58, 4, -7, -70, -17, 66, -30, 16,
   -78, -43, 16, -23, -41, -64, 46, -37,
   21, -38, 7, -7, -41, 2, -42, -13,
   -41, -29, -32, 60, 16, -32, -53, -62,
   -24, 11, 14, -24, 25, 43, 10, 1,
   16, -21, -58, -20, -6, -18, 10, 81,
   -10, 0, 18, -4, 36, 11, 44, 22,
   31, 22, 30, 38, 18, -6, 71, 2,
   -5, 55, -65, 28, -45, -38, -36, -30,
   -7, -5, 58, -14, -25, -61, -27, -4,
   51, -57, 80, -40, 11, 48, 52, -55,
   31, 5, 28, 31, -24, 29, -68, -67,
   -31, 35, -69, 0, -19, 24, 33, -17,
   -16, -50, 36, 34, -10, 33, -3, 1,
   14, 20, -39, -16, 65, -35, 11, 70,
   16, 46, 42, -30, -10, 64, -11, 49,
   -24, -45, -38, 28, -26, -8, 8, 5,
   47, -47, -8, 56, -25, 12, -34, -33,
   47, -23, 7, 54, -6, 53, -30, -62,
   -44, 29, 13, 43, -54, 64, -33, -10,
   -13, -38, 25, 20, 63, 17, 57, -49,
   54, -39, 26, 50, 40, 25, 59, -46,
   -21, -8, 7, 37, 68, 0, 56, 23,
   26, -22, -14, -10, -49, -44, -19, -64,
   -18, -59, -70, -49, 40, 19, -4, -21,
   15, -3, -47, 26, -48, 53, 4, -73,
   68, -49, -18, -1, 85, -17, 19, 1,
   66, -37, -26, 80, -47, -22, -19, 0,
   36, 16, 37, 38, 27, -23, -47, -4,
   -46, -54, 51, -25, -14, -32, -52, 23,
   -10, -55, -9, -22, 22, 56, 33, 10,
   5, 53, 28, 35, -17, -54, 45, -59,
   -52, 72, -5, -7, 43, 31, 67, -31,
   -54, -37, 44, 71, -18, 51, -51, 82,
   29, 47, 2, 44, -54, 8, 48, 9,
   16, 31, -52, 53, -44, -31, -28, -16,
   -2, 65, 34, -1, 12, -47, 1, -76,
   51, 18, -26, 36, -48, -15, -3, -32,
   -3, -65, 33, 48, 1, -31, -30, 56,
   -55, -8, 4, -58, -57, 24, 22, 23,
   30, 9, -4, 11, -25, 1, 43, -16,
   -25, 8, -78, -78, 25, 15, 12, 16,
   -26, 51, 18, -37, -50, 44, 1, -26,
   -21, -63, -6, 23, -33, -49, -24, -2,
   -14, -72, -35, -23, 35, -60, 23, -53,
   7, 51, 61, -69, -8, -10, -40, -81,
   -7, -56, -74, 37, -12, 55, -37, -41,
   1, -26, 24, -45, 13, -51, 48, -43,
   -14, 35, -13, -17, -61, 36, 68, 18,
   41, 47, -15, -6, 16, 52, 44, -23,
   67, 67, -63, -2, -6, 48, 74, 62,
   -39, -40, -25, 46, 65, -38, 65, 24,
   10, 49, 34, -60, -15, -17, -18, 62,
   44, -49, -53, 22, -9, 57, -70, 45,
   -29, -47, 1, -62, -68, 11, -7, -32,
   24, 35, 11, -32, 28, -78, -20, -41,
   -34, 42, 20, 44, -51, -57, -14, -41,
   20, 35, -42, -25, -25, -32, 25, -46,
   41, 60, -14, 59, -51, -31, -51, -56,
   -31, -23, 29, -21, -24, -22, -20, 68,
   -12, -42, -59, 11, 47, 6, 32, 35,
   80, 39, 40, 17, -32, -55, 33, 76,
   30, 62, 2, 27, 66, 22, 9, -36,
   -28, -17, -22, 43, 1, 0, -31, 17,
   57, -9, 60, 49, 45, 70, 21, -7,
   -17, -17, 52, 20, -40, -66, -54, 70,
   60, 21, -24, -29, -55, 43, -53, 56,
   39, 22, 19, 39, -53, 23, 16, -20,
   -49, 22, -26, -45, -24, 53, -74, -3,
   28, 13, 34, -48, -25, -40, -3, 10,
   -10, 7, 48, -6, -27, -32, 21, -6,
   11, 73, 6, -40, -22, 27, -36, 22,
   36, -53, -43, -4, 61, -38, 47, 47,
   0, 82, -46, 2, -23, 81, -30, 33,
   -54, -18, 33, 27, -49, 39, 30, -12,
   53, -26, -70, -11, -2, 46, -54, -26,
   -59, 7, 24, 20, 68, -30, -4, -37,
   -73, -30, -42, -6, -28, -20, -10, -71,
   37, -77, -17, -9, -6, 39, -3, -48,
   -22, -69, -6, -24, 10, 47, 33, 28,
   -37, -45, 33, 8, 90, 38, 44, 3,
   -57, -41, 50, -23, 77, 33, 37, -3,
   -8, 66, 53, -4, -48, -33, 52, -20,
   31, -45, 7, 51, -21, -28, -12, -24,
   -31, -10, 48, 59, -39, 35, 3, 57,
   17, -3, 43, -25, 42, -6, 41, 46,
   -19, 21, 74, 101, -1, 33, 45, 37,
   78, 58, 68, 41, 35, 43, 52, 95,
   70, -15, 60, 60, 46, -37, 78, 97,
   -3, 49, -57, 24, -9, -46, 7, -28,
   49, -20, 17, 62, -58, 0, 31, 30,
   38, -18, 50, -44, 67, -9, 73, -48,
   -58, 32, 10, 27, -12, 37, 0, -30,
   62, 50, -9, -29, 75, -45, -53, 11,
   -21, -62, -45, 43, 55, 7, -3, 57,
   -25, 66, -5, 20, 48, 5, 67, 36,
   49, 26, -53, -9, 20, 52, 27, -3,
   54, -11, -3, 55, 64, 20, -12, 67,
   0, -54, -32, 20, 41, -16, -53, -56,
   49, -17, -34, -27, -56, 10, 66, 25,
   -69, -44, 65, 45, 57, -25, -34, 43,
   55, -40, -15, -39, -18, -12, 24, -56,
   7, 5, 39, -30, 35, -25, 21, -69,
   44, -29, 27, -5, 41, 50, 42, 16,
   20, 37, -38, -9, 2, 12, 29, 33,
   -15, 5, 1, -11, 5, -65, -59, 24,
   45, -44, 25, 11, -54, -33, -46, -24,
   -40, -10, 20, 29, -86, -32, -3, -52,
   16, 61, 28, 0, 25, 56, 15, -59,
   -65, -60, 42, 37, -73, -3, -48, -65,
   14, -52, 7, 12, -16, 62, 7, -11,
   -1, -18, 54, 11, 0, 38, 22, 6,
   65, 8, -51, -51, 48, 0, -30, 35,
   -28, -54, 14, 22, 20, -65, 57, 41,
   56, -40, 24, 46, 83, 35, 72, 53,
   -69, 9, -13, -56, -35, -39, 41, 3,
   66, -54, -56, 51, -38, 4, 53, 54,
   -8, 26, 27, 41, -37, 2, -10, -45,
   -48, 0, -69, -6, -21, -19, -65, -24,
   5, -25, -16, -24, 24, 55, 57, 62,
   1, 67, 28, 58, 14, -24, 7, 34,
   13, -45, -31, 13, 46, 47, 45, -33,
   -53, -7, -26, 53, 34, 45, -39, 7,
   76, -17, -3, -3, -4, 7, 87, -10,
   67, 28, 1, 43, -32, 17, -7, 40,
   -66, 44, -30, 7, 34, 24, -36, 39,
   62, 37, 27, 35, 14, 25, 50, 40,
   -58, -8, -12, -35, 20, 44, -60, 22,
   39, 30, 13, 0, -44, 11, 3, -88,
   62, -52, 34, 36, 3, 21, -78, -87,
   31, -20, -27, -27, 37, -55, 2, -17,
   -20, 36, 25, 1, 0, 12, -33, -9,
   19, 36, -44, 3, -16, 31, 8, -32,
   -17, 60, 31, 64, 69, 42, 24, 42,
   41, 6, 10, -15, 30, -31, -45, 18,
   -12, -35, 11, -40, -21, 26, 39, -22,
   -1, 57, 23, 32, 37, -37, 57, -6,
   -7, -46, -68, 41, -15, -70, 10, -55,
   54, -23, 48, 23, -29, 15, -42, -64,
   36, -59, 3, -71, 42, 26, -6, -12,
   -5, 6, 25, 34, -27, 25, 45, -77,
   -31, -7, -12, -4, -87, 26, 32, -22,
   -36, 10, -25, -53, -16, 4, -1, -13,
   -59, -24, 1, -27, 41, -34, -7, 2,
   19, -52, -20, 82, -16, -49, -33, 95,
   -47, 86, 8, -4, 53, 69, 42, -48,
   37, -41, 24, 26, -10, -65, 42, -9,
   -37, 0, -19, -12, -35, -15, 5, 26,
   24, 11, 54, 3, 59, 0, 7, 37,
   33, 18, -72, -44, -26, -66, -43, -10,
   -32, 0, -58, -44, -56, 4, -20, 47,
   22, 25, -40, -12, -4, 47, -83, 3,
   48, -7, -9, -12, 27, 2, 14, 21,
   -52, -23, 20, -28, 12, -46, 41, -17,
   36, 8, -58, -4, -20, 20, 53, -37,
   16, 2, 70, -74, 38, 57, 6, -8,
   -74, 41, -5, 46, 46, -19, 30, 72,
   73, 8, 20, 32, -38, -10, 77, -22,
   -36, 7, -77, -77, 14, -22, -85, -36,
   0, -31, -62, -67, 9, -74, -59, -19,
   17, -46, -41, -70, 6, -42, -26, 42,
   33, 60, -3, -31, -48, -1, -37, -49,
   -7, 40, -26, 75, 47, -34, -11, -39,
   42, -60, -26, -17, -82, 4, 29, 20,
   -10, -12, -43, -78, -32, -45, 10, -15,
   34, 33, 68, 77, -39, 17, -32, 19,
   0, -13, 30, -19, 22, -45, 54, 28,
   21, -88, 11, 13, -79, 60, -26, 2,
   21, 11, 1, 17, 6, -65, -17, -65,
   53, -27, -63, -38, 19, -46, -32, 35,
   -28, 82, -7, 12, -29, -20, -11, 68,
   -14, -6, -30, -16, -5, -37, 23, 90,
   -25, 85, -5, -35, -65, 5, -54, -28,
   -51, -25, -28, -65, 21, 50, 0, 48,
   -4, -33, -54, 68, -73, -39, 13, -39,
   -29, 63, 8, 80, 12, 10, -8, -4,
   -21, -28, -22, 21, 11, -42, 82, 5,
   87, 82, -30, 15, 74, 35, 90, 43,
   -9, 76, 26, -26, -9, 37, 40, -6,
   -31, 4, 32, -13, -23, -23, -27, 54,
   52, 22, 34, -22, 40, 33, 59, -18,
   9, -9, 10, 6, 11, 30, 67, 60,
   29, 64, -49, -13, -32, -16, -39, 45,
   14, -1, -9, -4, -8, -26, -58, -56,
   -63, -62, 41, -64, -33, 15, -68, 73,
   15, -1, 5, 0, 60, 24, -8, 7,
   -37, 50, 52, 34, 73, 27, 7, -15,
   7, 15, -31, -53, -47, -51, -7, -30,
   -63, -12, -10, -47, -67, -23, -59, 5,
   -45, -6, 23, -48, -17, 11, 48, -9,
   6, 25, 29, -54, -29, 27, -49, 0,
   11, 3, -31, 59, -70, 22, 16, -51,
   15, -67, 25, -63, -23, -11, -28, 8,
   52, 5, -38, -30, -30, 34, 13, -2,
   -40, 52, -38, -31, 4, -42, 8, 44,
   -37, -16, -18, -20, -42, 44, -28, -23,
   -67, 53, -15, -39, 32, -74, -24, -17,
   32, 29, -52, -32, -52, 60, 2, 10,
   -50, 36, 98, -66, 24, 7, -87, 23,
   31, -12, 46, -13, -7, -29, 42, -42,
   50, -53, -31, -19, 45, 35, -15, -10,
   -21, 10, 28, 52, 29, 17, -35, -44,
   -10, -16, -27, 48, -10, -32, 53, -4,
   -11, -19, 51, 42, -41, -2, -15, -71,
   35, -76, -47, -30, 18, -58, -22, -14,
   -13, -8, 10, -35, 8, 8, 23, -21,
   -30, 4, 14, 5, -14, 32, -30, 44,
   -35, 19, -17, -9, -23, -8, 23, 59,
   -19, 2, 34, 46, -37, 71, 62, -18,
   -17, 65, 4, 53, -4, 52, 41, -12,
   -23, 28, 58, -31, 37, 41, 45, 2,
   -17, 48, 25, 32, 25, -13, 45, 55
};

static const rnn_weight vad_gru_recurrent_weights[1728] = {
   42, -7, -52, 74, 86, 25, 61, 55,
   40, 20, 20, 41, 94, 17, 47, 11,
   -5, 61, -53, 10, 52, -7, -1, 43,
   -30, -25, 32, -4, -46, -6, 21, -3,
   31, -25, 26, -31, -22, 7, -18, -75,
   -15, 77, 60, 14, 19, -72, 25, 11,
   -43, 41, 7, 9, -14, 35, 11, -39,
   8, -40, -39, 0, 33, -56, 26, -39,
   17, -41, -36, -51, -14, 58, -23, 27,
   9, -39, -36, -20, -49, 27, -55, -10,
   -35, -48, 13, 46, -35, -28, -82, -33,
   -37, -19, 29, 38, -11, 62, -128, -42,
   -11, 23, -29, 11, 26, 10, -50, 55,
   31, 39, -50, 8, 1, 55, 0, -35,
   -9, -30, 4, 18, 11, -21, -31, -2,
   32, 37, -9, 24, 42, -26, -51, -39,
   24, -10, -72, -11, 36, -52, -18, -49,
   -7, -17, -2, -27, 4, -2, -38, 21,
   -36, 34, 22, 42, 80, -11, 124, 2,
   22, 8, 19, 42, -8, 17, 52, 62,
   -3, -13, -2, 37, 74, 1, 31, 5,
   -37, -20, 2, 50, -17, 42, -27, 48,
   28, 66, 20, 22, 10, -36, 64, -22,
   13, 1, 20, -37, -4, -24, -23, -61,
   -14, -18, -19, -31, -39, -8, 35, 14,
   60, 7, -11, 22, -3, -24, -41, 19,
   -43, 18, -45, -14, 12, -10, 1, -9,
   4, 13, -44, -11, -15, 3, 4, -38,
   -16, 1, -26, -10, -55, 2, 1, -21,
   45, -69, -6, -1, 47, 45, 10, 9,
   -52, 24, -26, -19, 46, -74, -61, -18,
   15, 23, -16, -68, -20, 42, 26, -53,
   6, 15, -16, 5, 55, 27, 7, 8,
   -40, -17, 37, -37, 4, 14, -26, -16,
   -17, -61, -34, 13, 3, 40, -14, 8,
   -11, -19, 35, 3, -6, 42, 8, -32,
   3, 60, 30, 62, 102, -2, 36, 22,
   -13, 76, 35, 44, 40, -12, 53, 14,
   -41, 57, -35, -2, 71, -20, 53, 42,
   45, 22, 14, -52, -5, 65, 41, -7,
   15, -34, -45, -8, 26, 31, 26, 0,
   23, -61, -20, -29, -17, 32, -23, 18,
   -11, -58, 25, -6, 95, 2, 9, 65,
   -40, -21, 67, 39, -42, 23, 19, -61,
   6, 38, -26, 9, -17, -12, 37, 2,
   22, 7, 21, -5, 63, 6, 49, 17,
   46, 27, 39, 22, 43, -37, -1, 90,
   -33, -27, 10, 23, 53, 75, 23, 44,
   -38, 21, 38, -22, -48, -25, 2, -72,
   11, -22, 42, -69, -71, 13, 32, 4,
   -14, -12, 5, 0, 19, -28, 24, 47,
   36, -16, -15, 17, -5, -76, -30, -57,
   23, 31, -13, -34, -25, 4, -22, 8,
   23, 26, -43, 1, 53, 22, -19, 25,
   -49, 77, 40, 21, -6, 6, 23, 29,
   25, -22, -5, -21, 36, 18, 14, 31,
   -30, 44, -15, 70, 65, 22, 17, 17,
   58, 49, 50, 4, -34, -4, 27, 3,
   41, -38, 25, -30, 92, -10, -11, 101,
   60, 22, -29, -27, -11, 18, -47, -3,
   -24, -9, -13, -22, 50, -15, 27, -5,
   -38, 30, 2, 30, 21, 19, 38, 28,
   -56, 19, 41, 17, -38, 22, -44, -72,
   -7, 72, 16, 64, 13, -12, -18, 22,
   2, 19, 29, 40, 32, -17, 53, 12,
   -6, 2, 2, -2, -55, 18, 14, 37,
   20, 11, 16, 5, 39, 47, 22, -2,
   6, 28, 14, -45, 8, 12, 14, -26,
   36, 15, 19, -4, -34, -31, 55, 21,
   4, 37, -53, -7, -10, -15, 71, 65,
   -46, -44, -2, -12, -39, 56, -36, 16,
   -47, 40, 29, 14, -7, 11, -10, -61,
   -77, -64, -4, -22, -1, -3, -22, -45,
   -14, -68, 10, -54, -14, 16, -15, -37,
   60, -48, -19, -44, 19, -30, -74, -99,
   -21, -18, -2, -45, 30, -36, 34, -7,
   11, 29, 1, -40, -25, 8, 5, 29,
   -11, -6, 41, 17, -60, 34, -21, 0,
   19, 46, -85, -28, 33, -1, -14, -69,
   4, -55, 19, -9, 30, 1, -21, -24,
   -8, -34, -6, 28, 11, -20, -7, 27,
   -38, -28, -9, 22, 43, -96, 11, 18,
   70, 14, -20, 12, 12, 28, 38, 12,
   -5, 0, -1, -8, 3, 31, 33, 25,
   -19, 45, 27, 30, 26, 29, -19, 7,
   -7, -26, -40, 24, -13, -12, -28, -5,
   -16, 29, -5, -41, 0, -6, 19, -60,
   26, -18, 53, 5, 50, -27, 23, 0,
   -2, -13, -11, 1, -2, 64, 13, -41,
   50, -16, 32, -10, 25, 25, -54, 16,
   31, -6, 31, 51, 40, 34, 52, -20,
   42, 24, 45, 15, 10, 42, 77, 17,
   -44, 59, 35, 40, -34, 12, 24, 64,
   -40, 15, 30, -24, 9, 9, 14, 7,
   -7, 27, 10, -13, 78, -1, 7, 58,
   -6, 6, -50, 27, 1, 11, 36, 2,
   4, 11, -6, 38, 27, 31, -13, -15,
   76, -43, 19, -39, 72, 69, 14, 44,
   -8, 21, 22, -8, -23, -32, 17, 23,
   -19, 13, 48, -31, 39, -19, 5, -8,
   14, 37, -20, 8, 68, -13, 45, -7,
   35, 21, 53, 56, 29, 23, 14, -5,
   84, 1, 23, 12, 31, -12, 11, 15,
   26, -8, -80, 25, 12, 3, 38, 23,
   14, 71, -10, 3, -53, 22, 33, 26,
   18, -24, -11, 22, 82, 44, 44, 47,
   2, 19, 59, 45, 27, -3, 49, 68,
   34, 37, -41, 89, -7, -9, 41, -100,
   15, 40, -59, -19, 18, -28, -20, -27,
   -89, -13, 28, -33, -20, -50, -46, -54,
   35, 12, -7, -31, 17, -22, -27, 15,
   -59, 63, 3, 44, -6, -36, -46, -24,
   63, 56, 50, 45, 20, -43, -7, -11,
   -40, -35, -7, -4, -42, -6, 26, 44,
   -7, 15, -14, 42, -9, 2, -26, -10,
   21, -22, 11, -20, 6, -25, -4, -11,
   -3, -65, 3, -15, 58, 46, -38, 37,
   -28, 21, -39, 51, 18, 16, -12, 66,
   21, -32, 49, -17, -33, -28, 19, -5,
   -21, 28, 32, -4, 0, 50, -31, -39,
   40, 8, 38, -32, 57, 20, 0, 33,
   -35, -31, -7, 6, 4, -35, 66, 46,
   -20, -1, 9, 10, -27, 26, 0, 4,
   -2, -79, -21, 24, -66, 11, 20, 15,
   18, -11, 16, -9, -21, 6, 21, 17,
   65, -27, 21, 32, -56, 32, -9, 7,
   5, 14, -36, 73, -9, 31, 12, 0,
   -5, 10, -30, 5, 1, 23, 65, 22,
   -8, 20, -6, -13, 75, 37, 12, 45,
   32, 2, -78, 34, 4, -2, 61, 49,
   8, -28, 7, 6, -4, 7, -36, 4,
   -24, 41, -4, 13, -42, 68, 47, -23,
   29, -17, 16, 16, 25, -17, -30, 48,
   16, 58, 61, 26, -56, 7, 31, 23,
   -20, 76, -32, 24, -24, 16, 9, -61,
   30, -8, 20, 28, 62, 47, -61, 0,
   -5, 15, -110, -8, 9, -55, 54, 56,
   -39, -23, 36, 10, -90, -47, -11, -31,
   23, 17, 57, -2, 14, 7, 65, 16,
   21, 33, -46, 33, 10, 6, -28, 58,
   22, 50, -35, -8, -99, 54, -46, -28,
   48, -55, 43, -55, 42, 34, 12, 50,
   -31, 32, 21, 69, -80, 42, -14, 9,
   16, 49, -32, -18, -51, 33, 44, -57,
   11, 19, -28, -33, 27, 40, 31, 29,
   12, 22, 8, 2, 13, -29, -35, 44,
   7, 26, 16, -25, 18, 5, 73, -20,
   -14, -70, 35, -38, -10, -9, 7, 23,
   -7, -40, 21, -50, 35, 24, -44, -70,
   -10, -58, -8, -67, -18, -49, 57, -65,
   9, 21, 41, 61, 10, 11, -32, -8,
   78, -42, -22, 49, -32, -1, -5, 47,
   -26, -40, 18, -13, 54, 5, -29, -13,
   34, 37, -35, 7, 43, -49, 44, 10,
   51, -31, 7, 78, 38, 6, 25, 37,
   -53, 38, -35, -47, 23, 12, 55, -2,
   24, 8, -20, 39, 62, -10, 17, -2,
   19, -16, -12, 29, 53, 30, -3, 37,
   61, -11, 23, 36, -36, -12, -46, 51,
   70, -2, 32, -52, 35, 21, 17, 52,
   -23, 42, 64, 29, -32, 53, 11, 76,
   35, 26, -18, -47, -40, -54, 7, -37,
   -53, -10, 29, -45, -5, 41, -6, -10,
   -18, -74, -50, 28, 52, 33, 28, -17,
   11, 23, -37, 18, -38, 22, -52, -19,
   -12, 42, 3, -11, 22, -13, 7, 24,
   -42, -35, 0, 0, -40, -10, 90, 70,
   13, 9, -51, 22, -53, 45, 7, 10,
   -28, 8, 2, 16, 0, 6, 20, 41,
   -19, -8, -35, -6, -43, -15, 58, 3,
   -59, -24, 27, -29, 60, -51, -30, 14,
   56, 5, 3, 58, -42, 64, 50, 50,
   41, 9, -2, 3, 42, 1, 25, -13,
   7, -22, 15, -13, 16, 30, 45, 4,
   32, 2, 29, -38, 40, -43, 0, -28,
   22, 13, -3, 40, 5, -87, 36, 7,
   41, -29, 0, 13, -10, 6, -1, -50,
   21, -8, 11, -4, -3, 60, 14, -19,
   -35, -6, 12, 12, 30, 42, 14, -43,
   -21, 63, -29, 27, 54, -10, -69, -15,
   1, 9, -3, -16, -73, -14, -17, 15,
   -51, 23, -26, 8, -19, 7, -29, -63,
   -34, -63, -59, -18, -12, 21, -38, -66,
   60, -10, 12, -34, 38, 21, -24, -24,
   9, 27, 29, 35, 10, -20, 22, 103,
   -52, 43, -3, 12, 34, 49, 47, 12,
   -40, 41, -7, -3, 21, -33, 2, -71,
   64, -6, -23, 50, -10, -9, -62, -26,
   -19, -57, -10, -28, -5, -27, -13, 11,
   11, 4, -6, -29, -6, -13, -9, 14,
   -20, 53, 46, 32, 18, 32, -23, 75,
   13, 47, 2, 30, 45, 36, -25, -94,
   -22, -7, 12, -8, -44, -57, 8, -10,
   62, -10, -11, -24, -34, -30, -1, -21,
   4, -4, 33, -5, 22, 29, 4, -10,
   -79, 28, 56, 21, -35, 11, 38, -3,
   33, -34, 13, -37, 0, 0, -36, 12,
   19, 54, 40, -49, 10, -45, -6, 24,
   -12, -50, 40, 66, -46, -25, 31, -1,
   23, 13, 6, 2, 50, -87, 79, 39,
   58, 38, 75, 37, 15, 5, 31, -13,
   10, 25, 39, -25, 8, -17, 18, 0,
   -57, -48, 36, 85, 35, 8, 43, 22,
   66, 51, -49, 63, -52, 13, -3, -12,
   0, -40, 17, -26, 50, -25, 21, 5,
   -1, -33, 55, 40, -39, 0, -36, 17,
   -64, -31, -9, -29, -49, -14, 10, -33,
   -61, 2, 19, -38, -27, 29, 42, -40,
   -83, -92, 22, 21, -41, -30, -72, -89,
   14, -44, 25, -19, -61, 14, -31, -33,
   -14, 16, 28, -1, 7, -27, -3, 36,
   -49, -31, 16, -10, 15, -12, -14, -6,
   -24, 60, 9, -26, 23, 59, -4, 18,
   -7, 68, 53, -28, -15, -45, 5, -26,
   -5, -30, 15, -14, 22, -33, -9, -41,
   31, 40, -20, -22, 32, 0, 30, 6
};

static const rnn_weight vad_gru_bias[72] = {
   -13, -27, 16, -9, -17, 7, -24, -21,
   -14, -21, -2, -30, -15, -3, -11, -33,
   10, -17, -9, -2, -12, 11, -27, -28,
   6, 11, -2, -9, 29, 0, 6, -4,
   4, -6, -3, 24, 16, -8, 29, 33,
   14, 28, 1, -3, 2, 18, -1, 4,
   -8, 1, -6, -1, -2, -6, -1, 10,
   -2, 1, -4, -4, 4, -1, -3, -5,
   -12, -2, 6, -5, 4, -8, -6, -2
};

static const GRULayer vad_gru = {
   vad_gru_bias,
   vad_gru_weights,
   vad_gru_recurrent_weights,
   24, 24.0, ACTIVATION_TANH
};

static const rnn_weight noise_gru_weights[12960] = {
   22, -45, 22, -38, -22, 11, 18, -8,
   -1, -27, -19, -3, 53, 26, -22, 9,
   43, 31, -42, 5, -23, 24, 11, -15,
   50, 26, 41, -13, -28, -35, -36, -3,
   -20, -31, 28, -5, -13, 5, -32, 33,
   -24, -28, -14, 1, 14, -22, 54, -6,
   16, 20, 6, 11, -36, -21, 13, 32,
   10, -21, -32, -40, -51, 26, 34, 1,
   -22, 12, 1, -19, -9, 42, -23, 42,
   9, 14, -46, 24, -23, 27, -25, -37,
   -22, 34, -27, 30, -21, -13, 16, 8,
   14, 19, -11, 40, -46, 27, 32, 28,
   -8, -40, 0, -16, 27, -8, 36, 27,
   -15, -10, -15, -2, -45, 19, 4, 8,
   -8, -18, 13, -34, -31, 14, -35, -23,
   12, -15, 38, -12, -15, 8, -14, -8,
   15, 28, 8, 13, -14, 7, -26, 15,
   23, 10, 2, 12, 38, -15, 16, -21,
   4, -23, 8, -10, -9, 18, 36, -2,
   -9, -60, -10, -26, 26, 29, 10, -34,
   -30, -34, -4, -35, 27, 21, 8, -3,
   0, -28, 16, -7, -18, 19, 26, -16,
   50, -39, 31, 25, -18, -35, 17, -1,
   16, 18, -29, -29, -47, 17, 16, -8,
   -7, 38, 58, 34, 23, -38, -8, 44,
   -27, 14, 25, -43, 18, 44, 1, -39,
   46, 37, -10, 28, 2, 7, 9, 41,
   35, -20, -10, -38, -5, 0, -35, 40,
   17, 17, -10, 7, -26, -34, 35, -9,
   35, -20, -11, -12, 4, -7, 50, 27,
   17, -25, -20, -8, 37, 19, -18, 38,
   -25, -8, -18, 1, -36, -14, 22, 45,
   43, 38, -10, 27, -14, -25, 14, 19,
   21, 24, 46, 18, 28, 24, 11, -17,
   3, 41, -19, -40, -1, 27, 12, -34,
   13, -37, 29, -42, -13, -21, -1, 23,
   16, 4, 14, -27, -13, -21, 28, -9,
   -13, -29, -51, -13, -39, -4, -42, 28,
   -20, -14, 16, -23, 14, 30, 20, 19,
   -27, -4, -36, -6, -27, 13, 45, -35,
   50, 23, -38, -38, -25, 24, 8, 10,
   17, 46, -27, -33, 18, 13, -27, 0,
   -23, -21, 50, -30, 7, -28, -43, 25,
   -27, -11, 6, 37, -5, -37, -31, 43,
   -11, 31, -19, 11, -16, 18, -44, 26,
   -44, 2, -10, 47, -16, -3, 28, 12,
   -54, 22, -39, 20, 23, 41, 26, -1,
   -13, -27, 20, 19, 19, 20, 33, 35,
   25, 1, -23, -22, -6, -10, -11, 35,
   -19, -32, -23, -22, 11, -16, 30, 23,
   -27, 32, -10, -29, 5, 10, -43, -1,
   -44, 10, -17, -27, 1, 24, 9, 28,
   -43, 28, -35, -7, -4, 41, 28, 31,
   -11, 24, -16, 35, -16, 35, -28, 23,
   -18, -28, 18, -19, -2, -5, -13, 3,
   -18, 36, -1, -12, -40, -32, 33, -19,
   16, -4, 2, -30, -2, -46, 18, -42,
   -6, 20, -14, 36, -43, 32, 29, 28,
   8, -47, -1, -8, -9, 12, 2, 14,
   -40, -31, -20, 5, 31, -5, 25, 29,
   26, 6, -39, -40, -13, 29, -8, -19,
   -25, 4, -19, 21, 12, -26, 10, -1,
   2, -22, 11, -38, 3, -4, 4, 40,
   22, -10, 21, 15, -36, -8, 6, 15,
   -40, 2, 16, -38, -9, 7, 23, -21,
   14, -18, 18, 37, -1, -15, 0, 36,
   -43, -10, -4, -23, 11, 19, 4, -22,
   -23, -5, 29, -12, 4, 34, 14, 35,
   -30, 43, -37, 45, -3, 23, 15, -3,
   -23, 24, -15, -26, 1, -40, 8, 8,
   -46, -18, 4, 44, -7, -11, -16, 8,
   6, 15, -33, 9, -7, 24, -19, 11,
   -1, -3, -41, -27, -24, 33, 6, 19,
   -16, -30, 28, 1, -7, -21, -5, 38,
   -17, 3, 11, 22, 12, 50, -37, 25,
   -45, 28, -12, 30, -1, -31, -25, -6,
   -24, -23, -5, -19, -38, -35, -34, -47,
   5, 5, -4, 22, 16, 7, -6, 31,
   -16, -33, 28, 21, 11, 2, -31, -12,
   -31, -38, -11, -15, -22, 44, 20, 40,
   -6, 5, 24, -40, -9, -5, 35, -40,
   19, -19, 19, 37, 4, -32, -44, -5,
   -23, -35, -9, 4, 28, 17, -33, -34,
   -8, -36, -36, -21, -27, 38, 52, -1,
   -13, -14, -21, -39, 32, -40, -29, -28,
   46, -42, -36, 22, -17, 11, -14, 27,
   -27, 0, -12, 38, -42, 5, 16, -13,
   27, 27, 34, -5, -7, 8, 32, 3,
   -10, 33, -27, -23, -25, -19, -34, 25,
   5, 2, 9, -2, -12, -2, -31, -3,
   -32, -19, 23, -7, 0, 23, -5, -9,
   11, 45, 32, -12, -34, 29, -32, 14,
   -30, 12, -36, -1, 1, 30, -34, 40,
   -36, 4, -17, -11, -12, 0, -7, 8,
   -15, 2, 39, -23, 26, -27, 34, -22,
   -32, 14, 44, 35, 18, 31, -7, 18,
   35, -13, -14, 26, -2, -23, -25, 34,
   12, -32, 13, 20, -20, 14, 11, -10,
   -21, 20, -11, 19, -26, -33, -13, -13,
   20, 24, -4, -19, 41, 11, -21, 24,
   -54, -20, -37, 18, -22, 9, -1, 33,
   -20, 19, 30, -4, -38, -39, -29, 10,
   -5, 27, 33, 10, -37, -3, -39, -2,
   -3, -20, -45, -26, -22, -26, -43, 30,
   -28, -43, 27, 25, -46, 8, 35, 8,
   23, -3, -9, 16, 14, 22, 12, 22,
   2, -34, -39, 25, -35, 25, -40, -26,
   -18, 7, -28, -11, 4, 37, 44, 21,
   -30, 0, -45, -27, -1, 3, -16, -12,
   31, -29, 28, 26, 9, 11, -14, 38,
   -6, -31, 24, -23, 2, -17, -12, 40,
   -6, 18, -3, 12, -17, -37, -32, -39,
   -2, -3, 30, -22, -28, -41, 19, 6,
   -22, 9, -19, -23, -24, 7, -15, 32,
   -19, -12, -1, -4, -19, 11, -38, -30,
   -23, -33, -4, 27, 17, 6, 16, 11,
   1, -8, 18, 8, -27, 4, -8, -34,
   21, -32, -35, 45, -35, 0, -32, -23,
   -39, -33, 4, -39, -34, 27, 22, 2,
   5, 33, 4, -54, 27, 24, 46, 25,
   18, -13, 32, -37, -18, -42, 24, -20,
   10, -7, 14, 23, -7, -5, 41, -31,
   -35, 17, -25, -21, -15, 20, -44, 30,
   -32, -32, -35, -12, 13, 9, -33, 30,
   -27, 34, 0, -33, -5, 32, -28, -25,
   13, -2, 5, -4, -34, -10, -20, -40,
   28, -2, 24, 32, 4, 12, 14, 37,
   5, -22, -19, 18, -58, -18, -34, 33,
   -4, -4, 38, -17, 17, -5, -27, 15,
   5, 5, -35, 12, -12, -31, -12, 5,
   51, 29, 30, 25, 37, 12, 19, 0,
   -25, 22, -36, -10, -9, 1, 48, 15,
   -12, -2, 0, 35, -32, 21, 27, -29,
   -9, 2, -25, 10, 29, -24, 7, 21,
   -18, 21, -13, 14, -9, -19, -8, -20,
   -25, 12, 14, -9, 17, 25, -8, -15,
   16, 34, -26, 40, 19, -18, 30, -1,
   31, -33, 28, 34, 32, 18, 10, 1,
   36, 22, 3, -13, -1, 23, 35, -11,
   11, -35, 18, -34, -25, -34, -37, -31,
   -28, 27, 39, 9, -18, -19, 45, 40,
   -35, 15, 20, -6, -4, 20, -28, -29,
   -17, -37, 20, -34, 28, -10, 13, 14,
   -13, 3, -37, 30, 38, 30, -2, 23,
   -22, 2, 5, -32, 5, -9, 26, -35,
   20, -8, 20, -26, 8, -24, 3, 14,
   -23, 42, -8, 33, -48, 7, -3, 3,
   -28, 19, 25, -24, -14, 22, 16, 14,
   5, 27, 14, 40, -1, 26, 23, -32,
   -27, 14, -19, -16, 29, 17, 40, 11,
   15, 20, -2, -30, 11, -21, -24, 12,
   14, 36, -31, 13, 0, 20, -16, 21,
   -4, -22, -4, -16, 1, 13, 41, -32,
   -29, -10, 20, -15, -25, -31, 38, 33,
   -17, 35, 22, 2, -28, -11, 24, -19,
   25, -39, 11, 30, 16, -8, -8, 3,
   -4, 8, -35, 33, -26, -27, -19, 12,
   -32, 20, 43, 32, -27, -9, -7, 46,
   32, 43, 37, 10, -3, -31, 2, -37,
   -10, -2, 6, 1, 40, -10, -25, -29,
   29, -6, 0, -3, 14, 10, 38, -10,
   5, -11, 42, -13, -5, -29, -18, -31,
   -32, 25, 26, 9, 23, -21, 17, 14,
   19, -27, -24, 29, -39, -43, -4, 0,
   -50, 37, 34, -27, -31, -7, 22, -46,
   -10, -12, -38, -9, 28, -26, 13, 34,
   -42, -16, 9, -26, -16, 20, -10, -36,
   -4, 7, -27, 18, 36, 20, -26, 38,
   -4, -27, -24, -3, 2, 27, -18, -37,
   -4, -19, -31, -8, -3, -46, -31, 26,
   30, -32, 24, 3, -17, 32, 39, -27,
   29, 11, -34, -45, -36, -36, -15, -4,
   -11, 26, -15, -15, 11, -21, -31, -21,
   -10, -17, -28, 15, 25, -2, -16, -45,
   -22, -27, -7, 34, 12, 34, 12, 24,
   28, 22, 24, 31, -26, 29, -4, 22,
   -8, 18, 13, -28, 7, -38, -26, -33,
   -37, -17, 20, -6, 12, 2, -22, -22,
   -25, 37, 7, 45, -7, 6, -18, -3,
   31, 7, 37, 8, -30, -17, 32, 28,
   12, -2, 27, -32, 13, 38, 14, 17,
   -13, -28, -30, -19, 27, -25, 30, -27,
   -5, -19, 23, 29, 29, -38, 31, -5,
   31, 30, -29, -12, -14, 20, -34, 10,
   -1, -34, -25, -8, 0, 47, 9, -8,
   8, 1, 18, 26, -19, 5, 30, -7,
   39, 5, -3, -26, 18, 25, 19, 11,
   15, 6, 38, -11, -16, -7, -10, 23,
   -13, 26, 30, -25, -12, 8, -7, -35,
   -26, -47, 13, -22, 19, -34, 17, 2,
   -30, 13, 31, 22, 1, 23, -32, 9,
   2, 37, 5, 37, 38, -24, 35, -22,
   18, 36, 46, 25, -34, -47, -22, -22,
   -14, -3, -13, -23, -43, -38, -26, 25,
   39, -5, -35, -15, -11, -23, 49, -8,
   -12, 35, 17, 14, 25, 28, 25, 4,
   25, 11, 16, 22, -21, -3, 31, -41,
   45, -30, 14, -46, 1, 36, 24, -34,
   -13, -32, 23, 7, -31, -28, -28, 40,
   17, 22, -26, -11, 56, 5, 0, 16,
   27, 30, 31, 22, -22, -18, 26, -26,
   -19, -31, -15, -18, -23, 20, -32, 37,
   49, 8, 34, 5, -7, -19, 45, 21,
   -11, 4, 33, -15, -31, 0, 23, -40,
   -27, -5, 23, 29, -2, 22, 33, 31,
   -40, -4, -7, 10, -4, -15, 7, 31,
   13, -14, 21, -29, 25, 12, -2, -22,
   -2, -10, 34, -20, -41, -35, 11, -2,
   -17, 28, 25, -9, -29, 42, -30, -51,
   17, 0, 37, 19, 11, -31, 45, -5,
   -36, -15, -8, 29, -8, 7, -23, 1,
   9, -2, 18, -2, 29, 21, 30, 21,
   -28, 29, -26, 21, 43, -7, -10, 20,
   10, -35, -14, 5, 32, 16, 33, 27,
   39, 41, -34, -29, -6, 42, 41, -29,
   -27, -12, -7, 1, -12, 21, -14, -13,
   34, -8, -18, -19, 0, 27, 4, 46,
   13, 47, 2, -21, -25, 4, -26, -32,
   49, -17, 21, 44, 6, 26, -25, -23,
   13, -10, -15, -37, 31, 20, 24, 25,
   -35, 33, -14, -3, -1, 15, -14, -40,
   47, 13, 7, -25, 23, -13, 13, -8,
   26, -40, -20, 32, 29, -34, 35, -29,
   -15, -27, 42, 19, -21, -20, 3, -6,
   -13, -44, 19, -25, -19, -19, -23, 0,
   17, 36, -19, -3, -35, 17, 21, 34,
   25, -9, 10, 33, 16, 6, -34, 28,
   -8, -26, 35, -32, -25, -24, 14, 22,
   -23, -48, -15, 22, -7, 14, -12, -30,
   6, 26, 2, -26, -19, -16, 7, -27,
   -44, -3, 2, -41, -34, 12, -43, -21,
   -27, 39, -31, 2, 4, 31, 8, 2,
   -37, 10, 20, -33, -1, 31, 11, 18,
   18, -33, 9, -15, -6, 26, 24, -18,
   -42, 26, 31, -2, 5, -38, -3, -19,
   -18, -6, -27, 19, -25, 28, 19, -23,
   -42, -37, -2, -19, 23, -4, 3, -27,
   -37, 18, -28, 14, 23, 22, 23, 23,
   13, 11, -35, -57, 37, -16, 11, 4,
   -33, -19, -33, 9, 9, 23, -17, -23,
   -21, -47, 5, 33, -29, -29, -16, 14,
   -6, 33, -20, -11, 19, 44, 21, -5,
   -38, 39, -34, -24, -54, 9, -16, -23,
   -39, -24, -7, 17, 28, 11, -14, 32,
   11, 30, 11, -22, -15, -31, -20, 36,
   -26, -28, 33, -28, 0, -1, 24, 15,
   27, 5, -31, 19, -37, 12, -6, 29,
   6, -23, -41, 32, 17, 17, -6, 6,
   -20, -38, -46, -14, -12, 35, 14, 3,
   -35, 36, -43, 27, -4, 28, 21, -33,
   -19, -27, -25, -4, 25, -43, -6, -13,
   9, 26, -36, 25, 21, -9, 42, -16,
   -14, -25, 40, 6, 26, 0, 24, -44,
   11, 25, 34, 36, -32, 2, -27, 27,
   -41, 53, -5, 1, -25, 27, -4, -40,
   40, 5, -37, -12, -12, -1, 33, -4,
   -15, 28, 22, 7, -32, -22, -25, 29,
   29, 27, 14, 5, 30, 27, 23, -11,
   -9, 31, -10, -6, -28, -8, 45, 30,
   7, -1, 10, -33, -41, 23, -9, -17,
   21, -27, 29, -9, -13, -3, 28, 7,
   -2, -31, 36, 6, -21, -12, -30, -37,
   -23, 7, 8, -35, 0, -25, 21, -16,
   23, 14, 36, 15, 41, 35, 13, -32,
   -18, -6, 35, -26, -29, -6, -17, 11,
   2, -19, -10, -6, -51, 29, 13, 30,
   -24, 43, 9, 6, 28, 11, 22, -15,
   -21, 11, -19, 40, 14, 6, -27, -14,
   -1, -16, -7, -3, -14, 38, 26, 32,
   25, 36, 32, 11, -38, 33, -30, -19,
   40, -4, 43, 4, -35, -11, -17, -12,
   -6, -36, -10, -17, 2, -3, -16, 7,
   -14, 5, 25, 21, 20, -16, -26, 35,
   15, -17, -17, 21, 28, -39, 11, 26,
   30, 1, -12, 50, -12, 21, 35, 31,
   -6, 31, -42, -45, 7, -3, 45, -24,
   24, 19, -35, -26, -11, 13, 16, 36,
   -29, -1, 26, -23, -29, -40, 15, -12,
   -11, 26, -32, 17, -6, 42, 23, -25,
   -17, -18, -23, 20, -34, -7, 41, 37,
   -31, -25, -18, -21, -15, 34, -11, -11,
   6, -9, -33, -25, -11, -36, 16, 15,
   25, 50, 43, 32, 31, -6, 38, -30,
   -38, 19, 9, 2, -43, -18, 43, -21,
   24, 27, -15, -3, 35, -26, -25, 11,
   14, -34, 37, -17, -4, -20, 33, 31,
   25, 10, 43, 33, -17, 31, 4, -1,
   -9, 21, -34, 40, -41, 33, -20, -7,
   30, 39, 49, -29, 27, -10, -34, 8,
   -23, -16, -30, -11, -57, 23, -15, 16,
   23, 29, 11, -19, -12, 28, -58, 15,
   -24, -31, -17, -41, 4, 30, -27, 25,
   1, -3, -9, -54, 38, 8, -7, 13,
   0, 10, 28, -18, 23, 23, -13, 12,
   6, -24, 33, -13, -26, 7, 2, -19,
   -1, -24, 40, -10, 11, 16, -19, -10,
   -14, -43, -18, 0, 20, 18, -35, -14,
   -46, 25, -1, -14, 0, -21, -23, -6,
   -13, 22, -39, -7, 18, 7, 22, -24,
   7, 13, -8, -7, -14, 19, 17, -13,
   -19, 19, 10, 25, -23, -34, -34, -13,
   -9, 20, -10, 26, -21, 3, 20, 40,
   35, 3, 12, -39, 20, -5, -8, -10,
   19, 21, -16, 27, 1, -20, 26, -39,
   -7, 41, 8, -31, -3, 5, -21, 20,
   -24, -14, 15, 10, 14, -28, 35, -6,
   -37, 1, 30, -5, 13, 53, 0, 5,
   -13, 20, 24, 0, -35, 20, 7, 43,
   -25, -18, -24, 12, 29, -24, -35, -25,
   -37, -32, 27, -40, -32, -19, -3, -6,
   13, 34, 40, 12, 29, -14, 5, -16,
   50, -40, -14, 42, 24, -3, 7, 35,
   19, -24, -6, -3, 12, 37, -39, 7,
   2, -35, -16, 44, -22, -22, 29, 32,
   -12, -1, -39, 15, 18, -27, -15, -32,
   -21, 58, -10, -27, -11, -17, -9, 4,
   9, -21, 36, -30, 30, 2, 19, -19,
   -4, 2, -4, -20, 13, 1, 3, -23,
   25, -44, 31, 20, -32, 1, 36, -30,
   -9, 3, -24, -33, 4, -20, -4, 12,
   -24, 19, 11, -39, -41, 3, -32, -37,
   -17, -26, -31, -33, 0, -24, 13, -14,
   -4, -27, -22, 26, 32, 16, 26, -19,
   18, 10, -1, 36, -31, -38, 19, -29,
   -25, 52, 41, 27, -25, -9, -48, 39,
   -19, 24, 17, -23, -36, -20, 29, -8,
   -16, 9, 25, -24, -1, -38, 21, -31,
   -27, 22, -42, 37, 25, 21, -19, 20,
   -3, 12, -14, -37, 41, -27, 13, -7,
   8, 31, 6, 12, 50, -7, 8, 17,
   -3, 32, 6, 19, -22, 37, -14, 1,
   2, 29, 28, -18, 38, -2, -48, -6,
   -3, -2, 67, 24, -13, 10, -3, 28,
   -25, 42, 25, 9, -27, -8, 20, -2,
   -6, 16, -4, 12, -1, -17, 19, 34,
   -31, -31, -10, -21, -30, -25, -9, -12,
   -37, 2, -12, 1, -31, 42, -39, -38,
   17, -41, -1, -25, 15, -5, -36, 12,
   9, 43, -13, -38, -10, -8, 9, 44,
   41, 12, -47, -11, -3, 10, 13, 15,
   -21, -49, -6, 31, 22, 40, 9, -33,
   1, -42, -37, 12, -13, -47, -3, -29,
   -12, -4, 42, -34, 16, -13, 31, -1,
   -10, 44, 21, -47, 21, -37, 34, 35,
   -36, -9, -24, 16, -7, -33, -21, -1,
   12, -30, 7, -38, 7, 19, -9, -34,
   -36, 9, 24, -25, 13, -10, 10, 2,
   9, 23, -35, 3, -29, 18, -21, 8,
   -30, -36, -16, 4, 41, -17, -26, 1,
   8, -19, 29, 20, 0, -1, -28, -4,
   -19, 35, -5, -9, -20, 15, -31, 21,
   36, -32, 27, -17, 8, -21, 25, -29,
   34, -6, -17, -10, -21, -14, -21, -1,
   -11, -6, -21, -27, 45, -34, -13, -37,
   -35, 47, -16, -13, -17, 13, 30, -18,
   25, -41, 31, 33, -10, 14, -34, -12,
   6, -2, -19, 34, -8, -38, 9, 3,
   -6, 21, 8, 15, 17, 12, 2, 35,
   -25, -34, 52, 42, 5, 1, 7, -33,
   31, -1, 36, 25, 0, -34, 45, 25,
   -9, 23, 8, -20, -24, 6, 26, -2,
   -9, -53, 14, 38, 58, -16, -27, -26,
   5, -7, 7, 26, 36, -28, -30, -24,
   3, -35, -31, 40, 19, -25, -1, 22,
   -19, -19, 1, 30, -35, 14, 33, 0,
   -13, -19, 19, 2, -34, 0, -2, -41,
   -6, 28, -31, 27, -32, 11, -19, 22,
   2, 6, 29, -26, -13, 3, 48, 17,
   -24, 3, 34, 11, -41, -40, 26, 28,
   -16, 10, 26, -28, 22, -45, 0, 4,
   41, -10, 9, 6, -36, -8, 9, -27,
   -21, 19, -38, 27, 32, -25, -31, -16,
   -15, 33, 35, 39, -34, 12, 5, -11,
   25, 41, -16, 45, -4, 1, -26, 6,
   3, -4, -6, -19, 10, -17, -5, -31,
   -15, 35, 41, -40, 17, 23, 21, -14,
   5, -3, 19, 21, -32, 25, 7, -27,
   8, 2, -29, -38, -26, -26, -29, -4,
   -34, -19, -49, 18, -8, 0, -20, -29,
   36, -11, -40, 9, 36, 33, -6, 1,
   0, 56, -27, 0, 8, -33, 18, -43,
   20, 55, 38, -6, -36, -31, -25, -28,
   7, -3, -23, 10, 18, -7, -10, 5,
   27, -6, 19, 34, -35, 11, -21, 9,
   17, -15, -14, 32, -14, 15, -20, 36,
   5, 6, -26, -35, -9, 40, -27, -13,
   -3, 11, 1, 33, -5, -42, 18, -12,
   10, -18, -38, 30, 28, -16, -27, -11,
   -37, 31, -11, -14, 6, -28, -3, -33,
   7, 5, 33, 36, 32, 17, -4, 37,
   7, -9, -1, 11, 28, 4, 24, -7,
   46, -19, 39, -21, 28, 11, 45, 0,
   2, -28, 21, 27, -40, 12, 10, 43,
   14, -5, -32, 30, 34, -25, 0, -35,
   18, 25, -20, 32, -42, -9, -30, -25,
   2, -5, -10, 21, 39, -15, -29, 11,
   2, 2, -35, -24, 15, 23, -20, -15,
   -34, -5, 0, -17, -25, 26, -34, -31,
   42, -12, -23, 53, 35, 4, 7, 16,
   20, -10, 18, -36, 32, -34, -30, -12,
   -11, 46, 43, -25, 4, 3, 34, 14,
   47, -20, 4, -18, -50, -25, -25, -25,
   -23, 21, 18, -5, 29, -45, -3, -39,
   -4, 2, 22, -29, -39, -22, 7, -30,
   -8, 23, 14, -28, 11, 6, -32, -4,
   20, -4, 16, 48, -29, -31, -44, 29,
   3, 8, 22, -5, -10, 29, -17, -5,
   3, -26, -12, -33, 11, 4, -17, -17,
   22, -17, -4, -12, -14, 11, 21, -37,
   31, 28, -10, 7, 20, -39, -20, -7,
   14, 32, -12, 3, -44, -7, -33, -41,
   -32, -38, 1, -15, 17, 3, 38, 1,
   -2, 29, 3, -17, -18, -1, 10, -38,
   -5, 21, 18, 0, -3, -36, -20, -21,
   -6, -34, 47, -37, -26, -16, -21, -17,
   36, -2, -16, -29, -26, 24, -22, -26,
   -38, -24, 14, -45, -36, -2, 7, 20,
   22, 22, 28, -45, -34, -17, -27, -19,
   23, -21, -38, -8, 2, 23, -18, 43,
   3, -21, 14, 24, 6, 12, -8, 34,
   -15, 25, -4, 13, 43, -31, -5, 15,
   -28, 35, 22, -37, 31, -23, 26, -30,
   -1, 46, 45, 19, -23, -4, -35, -25,
   -12, -50, 14, 12, -28, 26, 39, -32,
   -12, -19, -18, -14, 34, -35, -28, 0,
   -8, 20, 43, 20, 14, 20, 38, 14,
   8, 21, 21, -10, -9, 7, 35, 1,
   -43, -8, -12, -8, 44, -15, -33, 17,
   3, -23, -23, -6, -21, -30, 5, 6,
   14, -23, 17, -23, 12, 33, -27, -8,
   38, -12, -27, 14, 13, -25, 30, 22,
   -32, -36, -36, -13, -4, 35, 2, -9,
   -21, -36, -45, 6, 7, 14, 29, -28,
   -28, -7, 6, 4, -11, -23, -17, 9,
   -5, -16, -40, -22, -12, 23, 40, 4,
   35, -38, -31, -1, -12, 3, -22, -7,
   -30, -31, 56, -40, 30, 11, 10, 5,
   -20, -21, 3, 56, 16, -13, 22, 15,
   -24, -33, 9, -7, 20, 25, 36, 41,
   -3, -11, 33, -38, -41, 27, -24, 19,
   16, -42, -45, -28, 16, 27, 23, -24,
   5, -22, -34, -41, -1, 27, 21, -19,
   -26, 4, 15, -29, -11, -43, -12, 2,
   33, 6, 20, 17, 22, -17, 19, 35,
   19, 39, -24, -4, 35, 27, 39, -20,
   -12, 29, -17, -11, -20, -49, 21, -24,
   1, 0, -38, 5, -12, 10, -30, 22,
   -15, 2, 39, 34, -16, -13, 2, -25,
   -15, -28, -4, 4, -6, -19, -8, -48,
   15, 0, -26, -19, -13, 36, -28, 17,
   12, 10, 42, 10, 27, 4, 53, -36,
   -11, -36, -31, 7, 24, 12, 10, -17,
   -5, 36, -6, -20, -25, 35, -43, -26,
   -3, -8, -4, 40, -2, -51, 12, 35,
   -37, 39, 39, 10, 1, 40, 32, 8,
   -9, -10, -36, -1, -23, -18, 56, -1,
   -30, -17, 38, 43, 30, 35, -22, 18,
   4, 25, 9, 21, 48, 32, 18, -27,
   -5, 27, -13, 11, -6, -29, -15, 7,
   33, -12, 18, -41, 24, -11, 32, 8,
   20, -12, 43, 35, -17, 3, 15, 42,
   37, -13, -18, 11, -19, -14, -6, 19,
   -32, -5, 16, 30, 21, 0, -4, -13,
   10, -12, -13, 11, -11, 33, 14, -9,
   -17, -19, 42, -22, 11, -27, 13, 36,
   -7, -24, -27, 29, 11, -28, -18, 30,
   43, -1, -21, 12, 41, -33, 3, -4,
   46, 37, 3, 10, -5, 37, 20, -33,
   2, -20, 38, 10, -17, 20, 0, -23,
   12, -14, -31, 39, -23, -38, -37, -10,
   -6, -44, 5, -7, 44, 36, -7, -22,
   -1, -21, -2, 47, 29, -23, -39, 33,
   -25, -12, 39, 27, 22, -8, -3, -24,
   18, 16, -6, 44, -21, -28, 32, -11,
   24, 25, -12, 29, 15, -8, -14, 15,
   15, -18, 29, -39, -31, -3, -2, -34,
   24, 19, 0, -23, -10, 35, 11, 1,
   -28, 9, 30, 30, 36, -31, 17, 6,
   18, 10, 7, -8, 15, 22, 22, 17,
   -7, -37, 17, 25, 0, -36, 18, 4,
   5, -58, 36, 36, -16, -42, 28, 32,
   -33, 39, 6, 27, -20, -43, 9, 28,
   -6, 42, 1, 9, 20, 7, 25, -2,
   -10, -20, 18, 17, 36, -37, -29, -15,
   4, -12, -45, -32, 9, -6, 32, -19,
   23, -22, 26, 17, -45, 33, -36, 19,
   6, 23, -31, -27, 31, 27, 27, 0,
   13, 33, -33, -37, -8, 25, 17, -20,
   -31, -2, -34, 0, -11, 18, -32, 3,
   10, -24, -26, 28, -41, -10, 0, -13,
   26, -11, 38, 21, 2, 10, 19, 38,
   -43, -4, 38, -30, 38, 5, 6, -37,
   39, -28, 9, 38, -7, -27, 44, -33,
   -16, 23, -20, -51, -22, -14, 8, -23,
   -6, 2, 46, -2, 3, 11, 22, 13,
   -28, 4, -32, -7, 24, 19, 38, 17,
   18, -9, -24, 26, -45, 28, 26, -17,
   16, -23, -25, -35, 46, -7, -20, -16,
   5, 46, 41, -4, 11, 1, 23, -37,
   -2, -33, 26, 18, -44, 21, -8, 42,
   41, 47, -26, -31, -7, 31, -18, 5,
   -33, 8, 13, -37, 3, 49, 4, -21,
   13, 27, 10, -33, 30, -25, 23, -6,
   -8, 14, 11, 38, -18, -37, -45, 22,
   -6, -30, 28, 3, -15, -11, 22, 45,
   -2, -3, -10, 13, 35, -6, 1, 12,
   -29, -9, 33, 7, -2, -27, -16, -33,
   -21, 26, -11, 10, -31, 42, 15, 13,
   -57, 7, -45, 1, 27, -22, 19, -8,
   -24, 25, -14, 28, 25, -31, 4, 32,
   32, -3, 15, 27, 6, 34, 29, 15,
   -30, -23, -29, 6, 38, -27, -44, 13,
   -13, 42, 26, -11, 0, -34, -18, -44,
   28, 39, 38, -28, -4, 3, -31, 17,
   -24, -11, -2, 11, 45, 3, 27, -28,
   -44, -6, -20, -14, -36, 23, 4, 3,
   37, -44, -47, -44, 35, 9, 18, -36,
   27, -37, -19, -42, -6, -4, 37, 29,
   1, 0, 6, 22, -32, 4, 13, 16,
   -34, 15, -4, -8, -26, -10, -34, -12,
   -2, -10, 13, 6, -25, -34, 11, 27,
   -2, -24, -8, -35, -26, -29, 21, 8,
   -18, -27, -7, 3, -30, -4, 18, -4,
   -20, 0, 1, -17, 16, -18, -1, -19,
   -29, -39, 38, -10, -7, -29, -20, -21,
   -4, 32, -33, 18, 12, -27, 14, -10,
   -4, 34, -14, 28, -16, 2, 38, 39,
   5, 20, 38, 25, 25, -27, 14, -7,
   13, -7, 27, 28, 27, -46, -13, 36,
   -20, -8, -3, -2, 16, -11, 28, 27,
   -2, 27, 22, 8, 41, 43, -9, 15,
   -17, 20, -14, -13, -6, -31, -18, 19,
   -4, -10, 2, 3, -23, -5, 15, -20,
   23, -39, -17, -44, 11, 33, 31, -8,
   30, 12, -16, -33, 35, -29, 48, 16,
   27, -7, 1, 13, -24, -5, 28, 27,
   -7, 27, 19, 9, 32, -30, 7, -25,
   -29, 30, -9, -10, -3, 14, 43, -27,
   38, 27, -21, 12, -29, 28, 47, 20,
   24, 18, 36, -16, -8, -29, 2, 39,
   -13, 44, -11, 42, 34, -16, -31, 5,
   8, 9, 10, 30, -22, -11, 8, 15,
   30, -29, 4, -24, -8, 15, 0, -8,
   24, -23, 3, -44, -24, 31, 36, 24,
   -4, 13, 13, -1, -27, -18, -9, 37,
   8, 5, 2, -28, -5, 7, -48, 29,
   -3, -15, 15, -26, -6, 46, -6, -3,
   -37, -28, 2, -21, 20, -32, 25, 26,
   3, -1, -2, -25, -5, 6, 2, 35,
   11, 1, 44, -13, -33, -5, -21, -2,
   -36, -14, 14, 22, -3, -19, 27, -8,
   37, 34, -23, -13, -29, -31, -37, -2,
   17, -51, -10, -19, -32, 45, -20, -32,
   19, -12, -18, 29, 21, 9, 21, 17,
   28, -33, -14, -33, -28, -22, 16, 8,
   -43, -18, 14, -22, -17, 8, 21, -25,
   0, 21, -11, -3, 34, 13, 7, -8,
   -18, -31, 41, 47, 5, -33, 15, -12,
   36, -43, -9, -15, -3, 34, -37, 5,
   -11, 0, -20, -4, 36, -22, -22, 11,
   30, 19, 26, -31, 43, 21, -18, 16,
   39, 1, 41, -12, 36, 41, 17, 33,
   1, -22, 39, 5, 38, -20, -30, 18,
   -32, 15, 33, 43, -48, -14, 40, 15,
   39, -13, -39, 2, 20, 8, -32, 16,
   29, 0, -21, 13, 31, -11, 3, -23,
   -3, 28, -37, 4, 19, 16, -29, -28,
   -6, 5, 25, -20, 19, 23, 19, 26,
   4, -46, 28, 16, -8, 23, 12, 17,
   -24, 29, 24, -20, 15, -23, 33, -10,
   -30, 13, -43, 28, -21, -11, -30, -3,
   -29, 29, -15, 23, -5, -29, -34, 34,
   -9, -6, -27, -46, 11, -10, 9, -4,
   -26, -14, 26, -19, -16, 3, 12, -18,
   11, 4, 4, -19, 13, 9, 21, -14,
   -20, 9, -15, 5, 17, -40, 14, 19,
   7, 45, -15, -37, 22, 15, 9, 35,
   -20, 34, 4, -8, -33, 1, 36, -32,
   -46, -9, 27, -43, -42, -1, 15, -36,
   -18, -12, -30, -30, 17, 20, 34, -39,
   15, -37, 29, 31, 4, 32, -40, -42,
   -45, 30, 35, -49, 31, -26, -17, -22,
   37, -17, -6, 20, -18, 6, 22, -22,
   3, -31, 7, 3, -18, -4, 1, 25,
   -4, -40, 3, -24, -29, -28, -35, 0,
   -41, 40, -1, -5, 18, 32, -10, 28,
   1, -30, 21, -49, -38, 33, 6, 29,
   24, 9, 25, -20, 16, 15, 30, -2,
   26, 4, 10, -27, -19, 25, -35, 28,
   11, 12, -5, -9, 24, -1, -46, -11,
   6, -5, 43, 34, 44, -41, 1, -24,
   -42, 3, -1, -26, 25, -17, -6, 35,
   -36, 24, 15, 32, -2, -2, 29, 5,
   -6, 9, -1, 35, -38, -30, 45, 27,
   -36, 28, -39, 44, -30, -22, 36, -12,
   8, -51, 35, 18, -10, -18, 23, -17,
   -23, -11, -15, 29, -6, 37, -35, 37,
   8, -18, -9, -16, 34, -26, 17, 27,
   23, 8, 13, -30, -24, -4, -7, -40,
   8, 28, 14, 51, 23, 7, 11, -21,
   10, 35, -17, -7, -31, 29, 21, 7,
   1, -44, 32, 42, -31, 23, 25, -14,
   37, 30, 6, 29, -17, -19, 1, -40,
   28, -20, -36, -2, 0, -20, 28, -28,
   -14, 32, -30, 25, 30, -38, -1, -8,
   -14, 28, -31, 19, -9, -17, 8, 38,
   -2, 19, -28, -26, -1, -31, 5, 23,
   0, 27, 17, -30, -6, -45, 34, -27,
   -29, 4, -35, 15, -22, 34, -19, -27,
   -31, 10, -31, -28, -4, 30, -7, -2,
   -24, -15, 8, -24, -14, -18, -41, -8,
   -15, 0, 5, 32, -36, 9, 33, -3,
   -23, 6, -24, -36, -16, 20, 10, -27,
   -17, 14, -16, -15, -30, 2, 21, 23,
   -3, 30, 58, -39, 16, 14, 8, 8,
   -3, 32, -37, -29, 39, 42, 4, 11,
   -42, -33, 17, 7, 20, -1, 9, 12,
   34, 21, -25, -6, 53, 36, -39, 10,
   -10, -18, -14, -33, 35, 14, 30, 9,
   15, 0, 14, -20, -38, 4, -14, -8,
   -29, -32, -19, 35, -21, -3, -46, -11,
   -26, -32, -11, -8, 25, -16, -28, 5,
   -11, -15, -42, -5, 8, -16, 11, 1,
   12, -25, 48, 50, -25, 20, 31, -36,
   23, -38, 2, -30, 24, 19, -13, 25,
   -11, -19, -33, -54, -40, -12, -27, 6,
   39, 13, -23, -30, -9, -10, -40, -6,
   26, 13, -30, -40, -41, -34, 2, 14,
   13, -2, 17, 2, 20, 10, -41, -22,
   -2, -36, 18, 31, 27, 27, -31, -18,
   3, -26, 30, 14, 3, -3, -12, -25,
   38, 3, 25, -42, 33, -20, -18, 30,
   -31, 26, 30, -23, 2, 3, 30, -24,
   45, 23, 10, -36, -17, 15, 18, 16,
   10, -18, 0, 9, 37, 7, 29, 30,
   8, -34, -7, -26, 18, 20, 8, 6,
   -32, -11, 13, -5, 23, 34, 18, -45,
   22, 14, -35, 32, 40, 17, -15, -3,
   -15, 34, 27, 7, -8, -3, 31, 31,
   -2, -31, 29, 33, 35, 21, 23, -17,
   24, -35, -18, 28, -43, -10, 19, 6,
   -45, 25, 51, -9, 14, 2, 30, -20,
   -9, 40, 9, 25, 2, -12, -22, 2,
   32, 40, -18, -13, -2, -16, -43, 16,
   -19, -4, -18, 17, 30, 6, 28, -2,
   -24, 10, -35, 8, 28, 35, -27, -33,
   -28, 35, 5, 24, -18, 13, -18, 38,
   -13, -16, 3, 12, 4, 15, -3, -33,
   51, 47, 6, -42, -8, -27, -25, 28,
   -35, -2, -13, -1, 18, -5, -27, -5,
   -7, -24, -9, -26, 9, -7, -3, 29,
   -23, -1, -29, -3, -13, -28, 29, -37,
   20, 32, 28, -23, 16, -21, 27, 4,
   -2, -32, -4, -15, 0, -25, 32, 19,
   -37, -2, -3, -25, 32, 36, -15, 0,
   -17, -9, -25, -28, -38, 29, 5, -1,
   9, -6, -27, -23, 29, 8, 2, 13,
   -50, -10, -50, -17, 35, 32, -28, 3,
   23, -4, -10, -4, -24, -11, -41, -2,
   -27, -24, 25, 19, 18, -12, 3, 41,
   -5, -8, 31, 18, -36, -15, 4, -22,
   38, -19, -6, 59, -1, -30, 1, 19,
   6, 23, -14, -22, 10, 40, -1, 14,
   22, -18, -30, 8, 44, 30, -26, -32,
   24, 20, -25, -21, 19, 34, 28, 17,
   12, 2, -12, -31, -36, 9, -18, 11,
   10, -7, 11, 37, -41, 34, -20, 16,
   -2, 47, 26, 0, 30, -30, 12, 13,
   26, 48, 19, -44, 3, -10, 12, -35,
   11, -32, -1, 6, 4, 20, 18, 30,
   -15, -12, 12, 11, 8, -33, -35, -27,
   4, 35, -31, -36, -4, -9, 30, -38,
   -2, -15, -56, -34, 39, -30, -34, 10,
   27, 15, 16, 30, -25, -16, -14, 14,
   -31, -5, -13, -11, 23, 20, -10, 18,
   31, 0, 28, 27, 40, -24, 2, -18,
   25, 16, -4, 8, -5, 50, 9, 16,
   6, 15, 0, 26, -11, -24, -9, -42,
   -35, -12, 7, 13, 23, 24, -6, -27,
   38, 31, 13, -27, -54, 38, -8, 45,
   30, 22, 31, -4, -15, 1, -28, 0,
   -6, 15, -36, 27, -29, 33, 22, 0,
   16, 36, 1, 1, -35, -37, 43, 3,
   -22, -34, -35, -21, 14, -40, -9, -35,
   -21, 0, -8, 40, -24, 15, 0, 2,
   -4, -29, -14, 3, 28, 2, -3, 2,
   0, -49, -44, 30, -6, 3, 10, 39,
   -36, 15, 32, 1, -13, 2, 12, 25,
   -20, -1, 44, -42, 21, 33, 30, -29,
   -29, -12, 32, 34, 0, 20, -40, -41,
   33, -14, -1, -31, -46, -50, 14, -26,
   -35, 19, 36, 44, 15, -25, 18, -3,
   31, 14, 16, -39, -1, -22, -32, -40,
   31, 24, -27, 1, -3, 19, 27, -30,
   1, -41, -15, 51, -35, -27, 34, 8,
   11, -5, -41, -19, -13, -26, -8, 17,
   43, -33, 32, -30, 22, 22, -5, -9,
   -22, 34, -30, -25, -4, 14, 3, -10,
   1, 5, -38, 24, 3, 20, -9, 6,
   16, -14, -21, 6, 0, -8, 12, -37,
   2, -35, 21, 34, 4, 12, 32, -18,
   22, 33, -31, -21, -5, -8, 3, -4,
   -42, 6, -7, -30, 35, 49, -15, -24,
   27, -2, -21, 19, 3, 2, 12, 27,
   26, 1, 5, -19, -34, 19, 0, 5,
   -28, 14, 33, -41, -14, -37, 18, 25,
   19, -12, 21, -31, -25, -22, 17, -36,
   26, -39, -45, 34, 8, -18, 3, -28,
   6, -37, -6, 36, -44, -9, 21, 21,
   -23, 3, 26, 37, 35, -22, 17, 1,
   19, -9, -27, -19, 26, -20, -23, -27,
   -9, 9, 17, -11, 46, -32, -6, 22,
   -43, 9, -2, -25, -26, -9, 20, 41,
   -30, 2, -2, 11, -33, 14, 30, 43,
   0, -44, 3, 4, -29, 30, -10, -19,
   6, 43, -38, 2, 23, -22, 8, -22,
   -21, -14, 22, -41, -27, -37, 23, -28,
   40, -36, 17, -39, 4, 2, 36, 18,
   -4, -35, 40, 4, -3, 18, -14, 1,
   2, 35, -13, 43, -42, 18, 1, 0,
   -12, 11, 9, 38, 32, 54, -44, -29,
   -21, -28, -5, 33, -24, -14, 28, -21,
   11, 17, 8, -1, 51, 23, -15, -30,
   -7, 35, 16, 39, 17, -13, -40, -37,
   20, 32, 30, -39, 40, -30, -35, 8,
   47, 17, -2, 20, 10, 24, -45, 32,
   -16, -39, -4, -33, -23, 4, 12, -34,
   -23, 19, 17, -5, 19, 9, 40, -9,
   -20, 31, -30, 24, 20, 2, 23, -40,
   -9, 47, -37, 29, -35, -31, -6, 15,
   1, -5, 20, 36, 14, -32, -13, -46,
   6, -8, -6, 29, -30, -23, -24, 36,
   19, -45, -4, -12, 23, 30, 30, -28,
   33, 46, 36, -32, 6, 16, -24, -2,
   -39, 0, 22, 21, -19, -21, -47, 9,
   -24, -15, 32, -42, 28, 33, 13, 4,
   -37, -43, 29, 29, 28, 10, 34, -23,
   -4, 7, -1, -25, -41, -38, 32, 22,
   -2, 4, 26, 47, -23, 9, -11, 22,
   7, -4, -20, 31, 11, -32, -29, -17,
   -30, -48, -7, -27, -20, 13, 28, 19,
   -20, 36, 29, -27, -13, -10, -21, -38,
   -29, 48, -26, -50, -1, -8, -32, -9,
   16, -28, -18, 25, 22, -36, -48, -28,
   32, -14, 15, 14, 28, 23, -35, -35,
   34, -45, -10, 36, -22, -4, -48, -20,
   -34, -4, -30, 8, 49, 13, -38, -31,
   -12, -3, -5, -34, 38, -24, -4, 36,
   14, -45, 18, -16, 17, -15, -29, -23,
   -16, -38, -4, -41, -13, -5, 36, 41,
   -5, 27, 4, -2, 34, 14, -15, -16,
   -14, 22, -38, 25, 20, 12, -21, -22,
   -28, -39, 13, 15, -6, -26, 21, -17,
   2, 15, 30, -8, 5, -34, -4, -19,
   23, -9, -38, -1, -9, 8, -27, 37,
   31, 35, -9, -12, 14, 31, 50, -30,
   32, -42, -7, -2, 12, -47, 31, -2,
   18, 48, 13, 12, -23, -47, 3, 3,
   0, -27, 19, -39, 14, -1, -31, -42,
   12, 4, -45, 26, -22, -19, -16, 2,
   -14, -6, -30, 41, 8, 31, 28, 5,
   10, 48, 8, 21, 8, 10, -29, 4,
   28, -28, 16, 27, 49, -2, 38, 13,
   18, 8, 18, 11, 14, -42, -44, -14,
   11, 37, 9, 11, 6, -28, 9, 32,
   31, -20, -24, -23, 34, 18, 20, -38,
   15, 22, -15, 41, -25, 30, 9, -25,
   8, -17, -18, 44, -3, 9, -11, -40,
   14, 15, -5, -2, 7, 10, -37, -20,
   -29, 22, 46, -5, 11, 9, -3, -28,
   -18, 13, -26, 8, 4, -23, 42, 0,
   0, 13, 29, 20, -33, 25, -26, 17,
   8, 7, -14, -16, -25, 36, -34, -35,
   -1, 11, 5, 42, -28, -27, 26, 23,
   16, 21, -16, 6, 16, -8, 27, -43,
   18, -33, 29, 1, -2, 24, 33, 24,
   31, -3, 18, 4, 25, -25, -13, 25,
   -2, 35, -20, -7, 2, -6, -33, 10,
   -19, -26, 14, 34, -6, 32, 30, -40,
   22, -5, -3, 6, -39, 23, -30, -40,
   36, 17, 43, -1, -22, -3, 25, 23,
   -1, -3, 28, 25, 25, 3, -24, -35,
   -2, 42, 13, -28, 44, 35, -38, 6,
   20, -31, 43, 13, 3, 24, -38, 20,
   -28, 34, 37, -26, 11, -21, 22, -27,
   1, 21, -19, -17, -4, -35, -1, 0,
   7, 26, 11, 33, -8, -45, -9, -29,
   -15, 20, 10, 35, 23, 28, -21, 9,
   22, -5, 1, -38, 2, -1, 17, -20,
   29, -2, -7, -23, 42, 14, 28, -26,
   -23, -21, 10, 21, 40, 34, 40, -7,
   18, 35, 19, 5, 21, -20, 17, 3,
   27, -7, 0, 10, 18, -16, -20, 24,
   41, 20, -46, -32, -49, -50, 3, 31,
   -50, 33, 23, -24, -31, -4, 31, -29,
   -6, -38, 16, -25, -35, -24, -19, 20,
   -28, -17, -3, 29, 8, 1, -42, -8,
   -43, 0, 19, 10, 9, -17, 32, -24,
   -7, 21, 5, 4, 27, 37, 43, 1,
   11, -21, -22, 18, 41, -19, 7, -23,
   6, -31, 39, 27, -10, -12, -17, 34,
   6, -22, 21, -36, 37, 28, 46, -34,
   31, -1, 20, -8, 5, -30, 11, -18,
   -18, -26, 33, 6, 27, 22, -45, 23,
   -5, -6, -20, -16, 12, 43, -15, -35,
   -32, 23, 9, 43, 30, -22, 7, 42,
   31, -16, -4, 10, 9, 1, 34, -26,
   -11, -33, 31, 7, -15, 2, 9, 27,
   -8, -6, 33, -32, -38, -27, 28, 36,
   36, 29, -22, -31, -40, -24, -35, -5,
   -24, -34, 14, 15, 43, 15, 11, 48,
   11, 36, -25, 47, 41, 24, -12, -37,
   18, 38, -47, -3, -22, 0, -9, -5,
   -18, -40, -24, 28, -24, 38, 8, 20,
   -20, -3, 24, 21, 38, -28, -8, 29,
   4, -30, -3, 44, -43, -33, -16, -6,
   -28, 13, 10, 29, -26, 33, 43, 24,
   6, 36, -18, -32, -13, 15, -31, 10,
   4, 29, -43, -46, 52, -19, 23, -21,
   27, 11, -4, -12, 26, 16, 7, 28,
   -41, -33, -43, 35, -43, 2, 40, -18,
   32, 29, 15, -24, -32, -16, 3, -12,
   -27, -6, -5, -24, 20, 21, -11, 34,
   -14, 10, 0, -39, 5, 5, -32, -22,
   32, 9, -16, 29, -36, 22, 9, -22,
   11, -15, 21, -34, 32, 9, 17, 36,
   -1, -25, -14, -36, 3, 33, 42, 32,
   26, -10, 37, -23, 27, 15, 26, 29,
   4, 12, 2, -17, 31, -26, -20, -14,
   9, 27, -47, 34, -4, -9, 3, -30,
   15, 0, 2, -1, 1, 29, 30, -34,
   -28, -39, 22, -47, 1, 1, -24, -13,
   -39, -13, -20, -14, -26, -19, -19, 11,
   -33, 12, 26, 8, 13, 15, -60, 34,
   -11, -13, -20, -19, -13, 39, -21, -28,
   32, 48, -28, 6, -11, -8, -20, 25,
   -14, 29, 16, -22, 36, 32, -8, -25,
   2, -30, 23, 36, -39, 49, -7, -27,
   -28, 26, -44, 49, -8, 17, 34, 28,
   13, -24, 35, 15, -31, 39, 3, -6,
   6, -41, 41, -9, -24, -6, 26, -2,
   -29, 37, -25, 15, -21, 10, 7, 32,
   -11, 7, 24, 14, -38, 27, 18, 27,
   27, -15, 36, -22, 14, -7, 16, -33,
   22, -1, 35, 20, 15, -4, 11, -25,
   -36, -35, 39, 27, 26, -17, -7, -7,
   -5, -22, -20, -16, 21, 15, -4, -7,
   10, -2, -36, -34, 5, -17, 4, -12,
   14, 16, -3, -20, 2, -50, 26, -11,
   32, -34, -15, -22, 32, 23, -37, -32,
   -20, 23, -24, 11, 12, -9, -35, 36,
   1, 14, -33, -44, 10, 34, -32, -16,
   -10, -8, -13, -25, -6, -18, 43, 8,
   26, 47, -41, 14, 16, -33, 40, 37,
   -8, 41, 16, 36, -14, 20, 0, -33,
   39, -5, 29, 22, -5, 17, 48, 25,
   9, -25, -7, 9, 17, -3, -37, 45,
   26, -36, 40, -20, 30, -7, 0, -27,
   -23, -4, -23, 36, 27, -11, -5, -18,
   -18, 42, 46, -19, -23, -5, -13, 25,
   27, 20, 20, 32, 14, -26, -26, -25,
   -23, -31, -25, 34, 8, 10, 14, -18,
   35, -20, 44, 36, -29, 19, -41, -29,
   18, -15, -9, -30, 23, 4, -23, -41,
   -22, 22, -10, 47, 11, 29, -4, 29,
   -10, 17, -13, 13, 13, 19, -26, -19,
   30, 6, 5, 4, 5, 20, 41, 16,
   19, -2, -29, -42, 36, -39, 11, -35,
   6, -9, -11, 7, -38, -40, 8, -4,
   29, -38, -12, -1, 10, -43, 16, -31,
   -6, 18, -40, -1, 24, 36, 35, 6,
   -22, 23, 6, -3, -7, -28, -8, 12,
   -27, 17, 23, 28, -25, -24, 23, -40,
   29, -8, -1, -16, 26, 4, 11, 16,
   38, -6, -5, -27, -15, -2, -18, 1,
   18, 18, 4, -19, 9, -36, 9, 31,
   -25, 16, 9, 1, -25, 11, -32, -13,
   11, -18, 8, 13, 21, 2, 34, -31,
   -38, -30, -17, 1, 10, -1, -10, -11,
   -30, 33, 30, 39, -32, 6, -33, -32,
   42, -38, -6, 5, -39, 28, -1, -8,
   -24, -30, -43, 3, -13, -20, 20, -14,
   -9, 21, 46, -13, 15, -7, 12, 8,
   9, 15, 5, 8, -37, 26, -18, 19,
   23, -5, 30, -30, 26, 21, -29, 27,
   -22, -31, -11, 25, 13, 12, -21, 13,
   -7, -20, -14, -12, -16, 15, -3, -40,
   -12, 2, 32, -4, 43, -33, -27, 38,
   -39, -1, -46, -4, -32, 28, -18, -21,
   -30, 57, -47, 43, 6, -22, 31, 42,
   14, -5, 35, -24, 15, 24, -38, -14,
   11, -25, 1, -39, 42, 36, -11, -20,
   23, -29, -17, 54, -8, 16, 15, -7,
   -6, 6, 26, 50, 5, -39, -55, -21,
   -27, -49, -39, 32, -14, 6, -19, 5,
   8, -30, 15, 4, 35, 29, 11, -5,
   -26, -25, -52, -11, 10, 29, 1, -17,
   -23, 19, 27, -7, -29, -4, 6, 15,
   -20, 7, 26, 16, -32, -34, 36, 29,
   -5, -15, 11, 12, -31, 15, 14, 30,
   47, -2, -4, 26, 35, 52, 28, 33,
   -30, -28, -13, 19, -20, 10, -5, -1,
   -26, -42, 5, 14, 9, 19, 15, 26,
   -21, 6, 44, 29, 33, -14, -7, -30,
   35, 34, -10, 9, 46, -23, -5, 27,
   28, 24, -11, 22, -38, 3, -14, -22,
   14, -35, -8, 17, -35, 29, -25, -21,
   -1, -29, 43, 10, 2, 33, -20, 5,
   14, -40, -54, -39, 43, -38, 25, -34,
   -20, -41, 34, 13, -8, -17, -6, -30,
   -37, -20, -9, -14, 24, -26, -6, 10,
   10, 32, 17, -26, 6, 29, 8, 17,
   -8, 15, -34, 11, 15, -23, -37, 39,
   30, 55, 6, 17, 8, -7, -18, -29,
   -34, 39, -10, -44, 27, 6, -17, -30,
   25, 25, -6, 5, 6, -14, 11, 30,
   -29, -37, 36, -11, 3, 1, -3, -24,
   -19, -31, -37, -13, 38, 23, -40, 25,
   46, -10, 13, 25, -40, 11, 0, -31,
   -39, -23, 26, -42, -26, -56, -10, 12,
   -38, 16, -2, 20, 2, -25, -40, 9,
   14, -33, -46, -19, -7, 27, -21, -33,
   8, -19, 36, 37, -23, -25, -29, -17,
   -51, 16, 7, -21, 0, -11, 17, 29,
   -14, 16, 33, 37, -2, -10, -26, 38,
   -35, -13, 15, 36, 4, -50, 38, -1,
   -11, 7, -23, 16, 19, 32, -7, -20,
   40, -5, -38, -7, 25, 8, -26, -34,
   16, 24, 28, 12, -6, 32, 24, 7,
   -21, -3, 16, -14, 10, 4, 14, 18,
   -45, 52, -6, 15, 13, -4, 5, -12,
   11, 31, -16, 21, 4, 10, -15, 34,
   34, -24, 35, 29, 17, 35, -23, 22,
   7, -36, 25, 18, -8, 20, -30, 16,
   -8, -1, 12, -16, -13, 13, 43, 9,
   -25, -44, 8, -20, 40, -19, -19, -11,
   -29, 28, 15, 11, 18, 30, 17, -41,
   -31, -8, -49, -25, 18, 13, 4, 18,
   33, -32, 17, -30, -26, -28, -18, 28,
   -43, -12, -26, 29, 2, 6, 24, -21,
   36, -30, -3, -17, -33, 14, 31, -35,
   -6, 24, -6, 19, 16, -37, -22, -18,
   3, 16, 14, -42, -12, 0, 9, 26,
   2, -18, -23, 35, -15, -14, -17, -33,
   3, 14, -23, 15, -35, -9, -31, 19,
   -17, 34, 30, 22, 1, 6, 39, -42,
   15, -29, -47, -3, 13, -7, -15, -13,
   -7, 48, 20, 22, 21, -15, -1, 6,
   37, 44, -10, -17, 1, 38, -17, -6,
   24, 39, -32, 0, 37, 38, -38, -28,
   -15, -4, -3, 36, -13, 30, -20, -28,
   34, 24, -19, -28, 25, -12, -19, -42,
   -8, 27, 4, -30, -33, -41, 9, 5,
   21, -24, -11, 3, 45, -41, 12, 1,
   26, -3, -11, 7, 6, -33, 43, 33,
   -1, -42, 13, -53, 31, -10, -27, 22,
   3, -49, -27, -28, 11, 38, -47, -13,
   8, 16, 4, -17, 18, 23, 36, 27,
   -2, 9, 29, 29, 12, 41, 4, -14,
   -39, -19, -45, 18, 13, -24, 66, 5,
   46, -12, -20, 8, 53, -5, 42, 42,
   -36, 28, 21, -36, -31, 16, 40, 5,
   -19, 4, 3, -31, 32, 16, 20, -15,
   29, -61, 37, -40, 8, -17, -20, -5,
   7, -12, 31, 0, -21, 17, -33, 49,
   -28, -31, -17, 3, -20, 27, 4, -20,
   -1, 26, -39, 48, -10, -40, 42, 29,
   -9, -4, 35, 9, -14, -44, -21, 4,
   29, 0, -9, -40, 29, 16, 23, -22,
   -8, -10, 22, -7, -38, 28, -8, -33,
   34, 30, -17, -33, 44, 20, 31, -6,
   43, -5, -34, -45, 3, -17, -15, -41,
   27, -13, -25, 30, 23, -4, -9, -2,
   -1, 22, 4, 45, -42, 14, 27, -19,
   31, -7, 16, -24, 26, 12, -44, 36,
   -4, 22, 7, 58, -2, -24, -9, 1,
   10, -20, -18, 27, 3, 9, 10, 12,
   -11, -24, 37, 44, 12, -24, -7, -25,
   21, -40, 17, 1, 15, -13, -3, -5,
   -26, 33, -55, -56, -9, -15, 20, 18,
   32, 25, -46, 16, 8, 34, -33, 20,
   -51, 13, -1, -4, 11, -38, -42, -35,
   41, -18, 3, 28, 13, -1, -11, 27,
   28, -14, 5, -47, -23, -32, 37, 0,
   -16, -38, 31, 52, 37, -35, -21, 9,
   11, 30, 39, -42, -2, -7, -15, -23,
   28, -36, 28, 13, 13, -16, 55, 24,
   30, -21, 0, 15, 8, -29, 35, -5,
   50, -28, -50, 20, -15, -19, 34, -29,
   21, -1, 19, -42, -1, 37, 14, 40,
   -13, 37, 34, 1, -12, -11, 48, 37,
   -36, -36, 9, 38, -14, 17, 23, 3,
   15, -28, -8, 7, 17, 10, -22, 24,
   -2, -11, 6, 52, -35, 46, 18, -20,
   3, 31, 7, -18, 15, 14, 13, 44,
   15, 46, -6, 32, -24, 9, 28, -3,
   44, -39, 41, 8, 8, -26, -19, 49,
   -33, -53, -1, -67, -16, 32, 45, -58,
   -28, 25, -14, 42, -24, 16, -7, -15,
   -8, -25, 10, 30, 6, -7, -14, -30,
   2, -33, -41, -1, 1, 33, 21, -28,
   23, -39, -13, -18, -37, 39, -8, 22,
   -10, 3, -25, -21, 27, -24, 40, -18,
   2, 29, 16, 4, 3, -6, 18, -33,
   -23, -28, 17, -19, 13, -31, 47, 23,
   -27, 24, 44, -12, -21, -27, -26, -23,
   25, 3, -27, 29, -32, 28, -9, -14,
   19, -6, -9, 15, 43, -38, -36, -33,
   -23, -44, -25, 32, -11, -27, -11, 10,
   26, -44, 7, 25, -11, -31, 27, -34,
   -30, -17, -16, -49, 12, -17, 4, -32,
   -17, 23, -2, -27, 17, -26, -31, 20,
   52, 9, -13, 7, 17, -1, 30, 33,
   -43, -1, 6, 5, 23, 29, -5, 1,
   8, 38, -10, 21, -6, -50, 11, 0,
   28, -2, 18, -46, -4, 9, 5, -26,
   37, 50, 17, -19, 42, 26, 36, 20,
   6, -9, -36, -9, -27, 9, -30, -7,
   -5, 26, 30, -11, 31, -18, 2, -6,
   7, -25, 29, 7, 27, 44, -16, -21,
   17, -23, -7, 26, -4, 34, 8, 30,
   13, -2, 34, 26, 32, -12, 30, 12,
   -2, -9, -30, 25, 48, -19, 45, 4,
   34, -5, -32, 43, -29, -8, 26, -5,
   56, 26, -49, -1, 25, -20, -9, 15,
   51, 18, 3, -28, -20, 13, 8, -17,
   24, 7, -36, -24, -7, 17, -8, 5,
   6, 17, 33, -18, 5, 26, -9, 32,
   -13, 29, 15, 27, -19, 30, 30, 40,
   59, 4, -23, 30, 14, -41, 7, 49,
   42, -18, 19, -29, 20, 22, 24, -11,
   -24, -18, 12, -6, -12, 34, -4, -5,
   -25, 14, 42, -18, -41, -19, 37, 48,
   -33, -18, -16, -55, -3, -9, 8, -31,
   -6, -2, -33, -50, 34, 18, -43, -12,
   -43, 16, -44, -1, 4, 8, 6, -7,
   -10, 28, -47, 4, 14, -46, 38, -16,
   16, -53, -22, 7, -17, 0, 38, -14,
   21, -59, 22, -21, -14, -61, 12, -12,
   27, -10, 66, -61, 14, -48, 30, -55,
   -13, -43, 7, -7, 10, 8, 12, 36,
   0, -20, 38, -14, -6, 17, 21, -31,
   43, 33, -48, -21, 17, -13, 37, -1,
   21, -14, 19, -20, 2, 37, -37, -14,
   17, -24, 16, -14, -41, 29, 16, -11,
   -28, 0, 2, 27, -41, 23, -5, -2,
   9, 24, -5, 15, 31, -10, 20, 22,
   -25, 26, 12, 51, 33, 36, 23, -13,
   -45, -33, 10, 31, -8, -40, -34, -5,
   -47, 9, -3, 8, 37, 2, -6, -3,
   -9, 15, 41, 1, 1, -25, 4, 33,
   9, 22, -15, -32, 0, -12, -25, -25,
   -2, 19, -26, -21, 20, -4, -9, 9,
   28, -30, 13, -52, 42, -9, -42, -15,
   -30, 30, -10, 35, 47, -37, 8, 13,
   10, -19, -43, -4, 3, 3, -22, 17,
   -1, -31, 39, -3, -13, 11, 6, 36,
   -12, -46, 30, -38, -7, -30, 33, 28,
   32, 6, 19, -26, -12, 12, 30, 41,
   16, 14, 16, -10, -1, -32, 0, -6,
   -22, 1, -4, -10, -8, 22, -26, -24,
   18, -41, -23, -48, -1, -9, -1, 38,
   -17, 27, -41, -32, -11, 45, -10, 7,
   -38, 69, 49, 40, 4, -2, 27, 43,
   -21, -32, 22, -18, -31, 26, 7, -1,
   30, 5, -13, 15, -5, -44, -22, 44,
   26, 1, -4, -63, 4, 0, -35, 28,
   -13, 31, -3, -4, -43, -26, 19, -1,
   -25, -3, -25, 3, 18, 29, 5, -21,
   16, 21, 28, 9, 27, -5, 4, -30,
   -4, 36, -16, 10, -1, 30, 33, -42,
   48, -20, -18, 47, 29, -30, 3, 38,
   -40, 31, -21, 4, -23, 12, -6, 3,
   -1, -52, -7, 15, -7, -16, 35, 30,
   18, -31, 22, 14, -30, -33, 1, 43,
   -30, 18, -22, 40, 7, -24, -20, 19,
   11, 25, -20, 5, -20, -13, -39, -2,
   49, -27, 10, 28, -5, 30, 52, 2,
   7, 23, -23, 5, -8, 35, -41, -7,
   23, 35, 36, -40, -47, -26, 17, -13,
   -6, -29, 37, 29, -26, -8, -20, 48,
   -16, -21, 9, -21, -34, 46, -7, -1,
   -6, -35, 29, 62, 17, -1, 36, -32,
   40, -11, 35, 36, 30, 11, 7, 18,
   23, -4, 20, -35, 0, 14, -17, -2,
   -26, -46, 36, 25, -17, 0, 3, 18,
   7, -8, 0, -16, -20, 8, -40, -10,
   -25, -29, -2, 25, -13, 24, 41, 36,
   -13, -41, -46, -37, -5, -25, -8, 8,
   35, -33, 0, -11, -13, 32, 16, 27,
   -12, -42, -4, -38, -24, 26, -23, -43,
   -43, 19, -35, 5, 6, 0, -36, 17,
   -18, -30, 28, -2, -3, 0, 24, 26,
   7, -16, -37, -28, 25, -8, 37, -34,
   34, -34, -15, 5, -33, 41, -22, 16,
   -19, 31, 9, 26, 40, -29, 2, -2,
   19, 27, -44, -25, -43, -11, -27, 32,
   -43, 47, -25, -2, -25, -21, -39, 19,
   -9, 14, -41, -17, -2, 5, -5, 6,
   23, 40, 27, -21, -5, -9, 23, 23,
   -10, 66, 1, -46, -3, 7, -9, 1,
   26, -6, 20, -18, 10, 24, 11, 36,
   31, 0, 20, 41, -28, 35, -21, -37,
   11, 17, 17, 13, 47, -31, -34, -31,
   -25, -1, -34, 23, -21, 49, 1, -26,
   -33, -7, -28, -5, -17, 38, -28, -15,
   -31, 21, -31, 47, 13, -25, -5, 34,
   1, 17, 45, 23, 21, -3, -38, 7,
   14, -34, -33, -43, -22, -17, 0, 56,
   26, 28, 8, 28, 11, -35, 8, -19,
   -3, -33, 19, 17, -36, -5, 24, -27,
   -45, 12, 25, -35, 33, -27, -3, 17,
   -16, 16, -1, -48, 33, 19, 32, 43,
   36, 14, -40, -36, -20, -13, -36, -5,
   38, 23, 17, 34, -33, 39, 26, -45,
   -5, 33, 38, -14, -27, 28, 56, 8,
   -23, 51, 16, 36, -14, 44, -13, -25,
   -28, 29, -14, -4, 4, 22, -5, 16,
   -17, 49, 11, -16, 39, -34, 28, -22,
   21, 36, -1, 41, -14, 41, 31, -12,
   -63, -44, -5, 20, 26, -56, 37, -33,
   -7, 19, -36, -7, 57, -26, -3, -25,
   -28, 54, 2, 34, -21, 21, 27, -26,
   -13, 40, 30, 29, 12, 51, -21, 9,
   -15, -30, 14, 73, -52, -36, -19, 29,
   18, 31, -33, -28, -9, -33, -34, -30,
   0, -30, 18, 11, 24, 17, -19, 36,
   -13, 19, 37, -18, -30, 28, 24, 28,
   -15, 56, 29, -8, 10, -12, -21, -37,
   -14, 39, 29, 17, 22, -6, 7, 4,
   -23, 41, 23, 45, -43, 27, 4, 58,
   27, -9, 35, -57, 35, 32, -7, -25,
   11, -20, 7, -37, 0, -6, -23, 29,
   -20, -9, -11, -14, 32, 16, 14, -3,
   -7, -23, 34, -4, 21, -29, 19, -12,
   -3, -43, -68, 33, 4, 7, 11, -44,
   -4, 19, 16, 3, -4, -1, 33, -20,
   25, -22, -24, -44, -48, -10, 16, -3,
   -14, -19, 28, -35, -28, 13, -3, -11,
   -13, -12, -25, -25, 41, 33, -43, 11,
   -19, -44, 27, -14, 29, 16, 18, 0,
   -9, 7, 31, -9, -15, 12, -43, 47,
   -35, 30, 15, 20, -25, 11, -31, -33,
   0, 23, 24, -28, -27, -39, -24, 22,
   -6, 10, -6, -30, 13, 17, -28, -25,
   -62, -43, 46, 30, 16, -23, -15, 10,
   20, -37, 35, -34, -45, 9, 27, 18,
   -14, -2, -21, -14, -17, 20, 23, 27,
   -31, 18, -13, 17, -54, 21, 13, -22,
   -31, -30, 10, -23, -16, 24, 31, 29,
   18, -43, -30, 41, -25, -37, -7, -11,
   -10, -12, -18, 60, 9, 26, -16, -1,
   14, 2, 23, 21, -6, 24, 29, 2,
   33, -9, -6, -21, -38, 50, 26, -11,
   -26, -22, -29, 36, 27, -24, -13, -8,
   -28, 25, 30, -25, -22, 20, -7, -30,
   -26, 6, -4, -10, -12, -43, 7, 24,
   12, 11, -21, 24, -15, -12, -33, 5,
   24, -13, -30, 17, -24, 18, -37, -16,
   13, 17, 28, -30, -42, -29, -21, -13,
   -27, 49, 40, -31, -46, -20, 6, 2,
   32, 18, 22, -13, 11, -42, 12, 25,
   -25, 1, 30, 19, 56, -32, 18, -19,
   -39, -19, -10, -4, -34, -6, 26, 21,
   24, 50, -59, 43, 11, 14, 34, 10,
   31, -6, 11, -28, -12, 8, 51, 3,
   16, -5, -10, -19, 31, 9, 4, 51,
   13, -15, -6, -20, -7, 18, 10, -8,
   19, 46, -49, 31, 22, -29, -39, 41,
   32, -31, 11, 9, 4, 2, -8, -14,
   -17, -11, 30, 36, -36, -6, 39, 21,
   34, -47, 16, -6, -19, 13, 2, -27,
   -32, -39, 0, 36, -7, -18, 16, 17,
   22, 1, -11, -8, 12, 34, 26, 6,
   1, -12, 3, -43, 20, 45, -28, 32,
   25, -35, 22, 7, -27, -32, 2, -10,
   -23, 6, -4, 12, -19, -12, 30, 26,
   -23, -40, -21, -45, -49, -38, 26, 7,
   4, -18, -16, -27, 35, -15, 0, 34,
   -4, 14, 30, -8, -1, -46, 1, -7,
   20, 7, 3, -31, 42, 17, -30, -41,
   17, -11, 5, -24, -41, 27, 33, 4,
   -8, 14, 17, 46, 14, -10, -24, 0,
   43, -8, 13, -50, -34, 17, 0, 5,
   -17, -22, -48, -26, 21, 1, 7, -4,
   -10, -4, 29, -3, 12, 9, -22, -22,
   36, 8, 24, -9, 24, -31, -10, -4,
   -9, 4, -24, -40, -6, 35, -51, 17,
   34, -3, -5, 24, 23, 22, 22, 21,
   8, -22, 52, -7, 3, -7, -31, -1,
   47, 15, -33, -6, 13, -47, -29, 10,
   -19, 18, 27, -38, -18, -32, 16, 34,
   -21, 34, 60, 28, 8, 2, 27, 4,
   3, 10, 0, 51, 13, -34, 60, 36,
   -9, 13, -2, 4, -6, -44, -18, 25,
   -30, 0, 22, -20, -38, 24, -9, -34,
   -37, -34, 30, -12, -7, -18, 41, 9,
   -9, -18, 34, -30, -30, -3, 22, 45,
   50, 8, -32, -29, -2, -29, 36, -19,
   -7, 1, -29, 23, -35, -28, 35, -29,
   8, 39, -13, 11, 16, 7, 16, 23,
   28, 3, -17, -27, -36, 17, 21, -45,
   26, -47, 5, 25, -16, 27, -26, 32,
   36, -20, 20, 12, 22, -27, 17, -32,
   39, 52, 10, 12, 20, 0, 27, 7,
   -18, -12, -3, -38, 31, 45, -18, -16,
   18, 39, -23, 8, -4, 3, -4, -32,
   13, -5, 1, 26, -9, 21, 26, -27,
   4, -18, 6, -6, -13, -16, 31, 12,
   -14, 18, 34, 5, -36, -14, 1, 15,
   0, 21, -19, -5, -32, 2, -37, -6,
   -11, 21, -6, 15, -34, -6, 1, 39,
   7, 34, 66, 10, 11, -48, 6, 0,
   -21, 8, -20, 18, -46, -10, 8, 14,
   23, 35, 7, -24, 1, -17, -15, -11,
   33, 23, 28, 12, -15, -35, 14, -2,
   12, 6, -27, -14, 14, 27, 36, -56,
   -26, 14, -25, -1, -7, 22, -9, 37,
   5, -21, -27, 17, -26, -30, -23, -12,
   25, -22, 4, -44, 13, 23, 31, -15,
   10, 2, 4, 3, -17, -5, -36, 21,
   0, -27, 13, 17, 16, -40, -25, 14,
   19, -16, 1, 5, 4, 29, 13, 31,
   30, -22, 16, -9, -34, 31, 2, -1,
   27, 19, -50, 14, 14, -1, -31, -35,
   25, -29, -6, 7, 19, 22, -5, -5,
   -2, 2, -14, -25, 22, 24, 30, -2,
   56, -26, 27, -48, 48, -26, -25, 25,
   41, 21, -22, -7, -33, 12, -45, 6,
   16, 48, 26, -51, -42, 31, -61, -4,
   9, -27, 25, -15, 25, -27, -11, -32,
   -26, -8, -39, -15, 23, -9, -18, 1,
   17, -19, 60, 18, -1, -28, -20, 4,
   -19, -23, -37, -7, 21, -16, -21, 21,
   23, -39, -69, 12, 42, 19, -10, -37,
   66, -41, -5, -23, -13, 8, 10, -8,
   -26, -18, 32, 4, 40, -1, 13, 49,
   42, -44, 43, -65, -41, -46, 14, -65,
   0, 13, -51, -54, -13, -33, 42, 13,
   5, -14, 17, -36, -35, 18, -41, 31,
   23, 26, 3, -45, -20, -10, 13, 5,
   -8, -37, 21, 2, -28, -10, -37, 53,
   1, -60, -37, 34, 33, 47, 25, -4,
   -28, 19, -22, 37, -16, 36, -3, 39,
   -29, 2, 16, -17, -1, -28, -11, 11,
   -26, -3, -12, -4, -4, 18, 22, 26,
   23, 29, -12, 16, -17, 19, 6, -3,
   10, -18, -22, -4, 17, 8, 33, 33,
   32, -10, 15, -18, -24, 9, 53, 19,
   27, -29, 17, -70, -52, 18, -3, -30,
   56, -7, -9, -42, 55, 20, -33, -4,
   9, -30, -37, -26, 40, 32, 14, 10,
   3, -4, 26, 32, 7, -21, 36, 14,
   31, 23, -49, 20, 29, -11, 15, -5,
   19, -53, 27, 11, 25, 11, 7, 23,
   -9, 12, -25, -6, -36, -22, 18, 0,
   5, 2, -1, 8, 21, 25, 22, 17,
   4, 4, -2, 11, -25, -24, -5, -22,
   62, 37, -40, -43, -48, -25, -4, -1,
   13, 12, 36, -35, -34, 6, -24, -13,
   14, -21, 32, -2, -20, -10, 31, 39,
   -34, 65, 17, -6, 28, -18, -30, -43,
   -36, -4, -42, -16, -3, 8, -37, -37,
   -55, 45, -23, -7, -36, -33, -44, 14,
   -58, 20, 8, 22, -37, 23, 14, -24,
   -5, -19, 30, -2, 8, -34, 27, 38,
   8, 5, 9, 19, -1, 28, -2, -31,
   12, 53, 14, 39, -10, 30, 31, 1,
   -29, -4, 22, 27, -70, -35, 27, -26,
   58, 51, 18, -20, -44, 59, 5, -40,
   2, 3, 59, 23, -22, -26, 15, 48,
   -2, -22, 0, -16, -5, -5, 17, -35,
   17, 16, -34, -20, -20, -15, 15, 27,
   5, 36, -4, 15, 52, -13, 19, -18,
   -30, -8, 1, 32, -41, -12, -48, -12,
   -2, 6, 0, -44, -38, -21, -5, -19,
   -49, -32, -21, 11, 32, -13, -3, 34,
   -13, -9, -3, 16, -53, -3, 58, -17,
   36, 4, 25, 0, -26, 19, -13, 17,
   -20, 46, -14, 20, -52, 18, -14, 41,
   -37, -18, -18, 2, -44, -21, -2, 9,
   12, -16, 36, -13, 35, -8, 30, -22,
   59, 15, -37, -22, 27, -35, -44, -37,
   7, 8, -1, 3, 71, -38, 14, -2,
   -38, -54, 10, 29, 1, 68, -16, -15,
   23, 3, -28, -10, -25, 36, -9, 12,
   23, 44, -9, -11, -24, -20, -66, -41,
   4, 14, 32, -28, 31, -2, 44, 34,
   -21, 6, -10, -26, -43, -21, -7, 7,
   -44, 29, -7, -5, -5, 31, 55, -38,
   27, -35, -3, -4, -24, 52, -25, -35,
   4, 20, 12, -5, 39, 56, 24, 0,
   -17, 45, -9, 26, -17, -1, -30, -36,
   -30, 54, 6, -21, 24, -37, 12, 14,
   -11, -38, -27, 48, -43, 6, 3, 35,
   -26, 27, -31, 3, 0, 13, 37, 17,
   -39, 48, 18, 36, -14, -22, 16, -10,
   -35, 52, 12, -8, 41, 6, -42, -5,
   4, -46, -1, -31, -35, -21, 53, 25,
   -19, 27, 17, 16, 13, 32, 9, -1,
   16, 12, -45, 10, 3, -31, 6, -8,
   32, -41, -18, 27, -28, 20, 29, -38,
   8, 18, 9, -6, -63, -18, -2, -33,
   30, -7, -16, -9, -20, -4, 20, 41,
   35, 7, 16, 0, 47, -8, -45, 0,
   -7, 12, -18, 25, -11, -40, -31, -27,
   12, -16, -16, 35, -8, 14, -47, -10,
   51, 25, -8, 36, -7, 8, 33, -39,
   -7, -63, -6, 48, -20, 32, 3, 14,
   39, 20, -20, 25, -57, 13, -10, -26,
   32, -47, -61, 6, 25, 34, 42, -12,
   -28, 31, 5, -36, 37, 7, 33, 24,
   -21, 10, 16, -6, 20, -5, 36, -1,
   3, -41, 42, -4, 31, -35, -43, -11,
   -2, -42, -19, 7, -10, 8, -2, 17,
   40, -13, -42, -27, 36, 14, -45, -22,
   -28, -47, -32, -36, -28, -17, -20, -1,
   10, 46, 23, 17, -24, -4, 22, -27,
   -43, 17, -30, 9, 14, -31, 23, 19,
   -30, -7, -9, 21, 43, 19, 21, 10,
   -17, 32, -41, -20, 45, -32, -38, 32,
   28, 39, 28, 21, -23, -26, 6, -28,
   1, 8, -26, 52, -39, -33, 6, 29,
   37, 25, 22, 16, 26, 28, 16, 16,
   23, -20, -2, -14, 15, 37, -26, 42,
   -70, -21, 17, -34, -16, -24, 12, 12,
   -29, 74, -23, -56, 46, -26, -13, 30,
   27, -7, -54, -4, -44, -20, -35, -7,
   21, 34, -1, 4, 26, 23, -47, 63,
   32, 20, 1, -20, -1, 3, -19, -23,
   15, -30, -1, -26, -21, -41, 3, -1,
   -55, 27, 0, 54, 20, 2, -27, 15,
   -42, 42, -50, -10, -20, -35, -23, -14,
   28, -18, 0, -46, -56, -43, 24, -18,
   18, 46, 44, -20, -28, 13, 39, -24,
   -14, 9, -19, -21, 31, 9, -24, 28,
   25, -14, -24, -29, -24, -6, 15, -11,
   -18, -17, -1, -28, -29, -15, -39, -43,
   -39, 18, 8, 47, -69, 21, -54, -11,
   -24, -44, -38, -20, -24, 45, 20, 46,
   -1, -2, -22, -64, -42, 23, -53, -12,
   23, -14, 0, 23, 14, -5, -31, 36,
   -12, -25, -38, -53, -36, 30, 55, 2,
   -25, -3, -22, 31, -3, -41, -15, 8,
   33, -37, 24, 22, 3, -11, 11, -34,
   -25, -8, -7, 15, 58, 46, 24, -9,
   5, -56, -48, -39, 6, 14, -2, -46,
   -50, -13, -31, 12, 25, 0, -18, -36,
   5, 6, -23, 3, 21, -8, -22, 45,
   19, -1, 22, -24, -39, -36, -12, -9,
   26, -23, 22, 2, 9, -12, 32, -14,
   34, -39, -4, -2, -5, -25, 22, 39,
   -23, 36, 44, -38, 41, 27, -8, -1,
   -5, 0, 21, -6, -50, -20, 56, -10,
   -42, -20, -23, 35, 25, 40, 0, 34,
   12, 23, 9, 15, -19, -20, -27, -5,
   -26, 48, -27, -19, -52, 1, 7, 37,
   22, -30, 10, -19, 33, 23, 2, -36,
   35, -27, -44, -13, 35, -19, -27, 37,
   -19, 5, 34, -15, 50, 14, -22, 9,
   -9, 44, -8, 68, 34, 4, -32, -13,
   63, -28, 33, 2, 9, 27, -40, -12,
   -32, 22, -36, -8, 10, -57, -18, -5,
   15, -15, 48, -48, 1, -29, 38, 15,
   33, -4, -22, -58, 29, -44, 33, -27,
   -17, 50, -12, -38, 19, -6, -14, 15,
   16, 27, 32, -33, 39, 26, 39, -28,
   11, 13, 22, -6, 18, -2, -17, 1,
   -7, 48, 21, -26, -46, -3, -17, -49,
   14, -32, 5, 13, 21, 12, -35, -18,
   14, -14, 39, 10, 26, 24, 2, 20,
   24, -13, 11, -30, -30, -43, -21, -12,
   -5, -21, -16, 46, 5, -14, 21, -24,
   25, -25, 0, 12, 12, -23, -32, -37,
   17, -24, -14, -39, -23, -20, -18, -26,
   32, 28, -45, 34, -7, -2, -8, -24,
   -35, -15, 3, 33, -65, -21, 14, -26,
   -5, -53, 8, 21, -33, 39, -17, 40,
   54, 9, 17, -2, -17, -34, 22, 36,
   4, 18, 17, -2, 36, 28, -43, -11,
   -6, -14, -21, -36, 2, 62, -29, -26,
   -19, 21, -71, -33, 2, 51, 36, 62,
   13, -34, -36, 52, -3, -16, -33, -44,
   -17, 43, 51, -31, 5, 39, 21, 39,
   14, 25, -6, 42, 35, -37, 13, 14,
   8, 10, 33, -28, 3, 27, -23, -1,
   18, 22, -24, 23, -23, -4, 29, -11,
   -27, -13, -24, -21, 45, 15, 24, -21,
   -16, 32, -2, -25, 29, -13, 3, 40,
   27, 9, 18, 38, -15, 35, 0, -34,
   2, -11, 41, -18, 32, 34, -35, -19,
   37, -35, -7, 44, 2, 39, -21, 44,
   63, -47, 15, 34, -8, 13, -31, -6,
   -3, 4, 43, 10, -2, -35, -17, -11,
   -17, 27, 16, -39, -45, 8, 42, -35,
   -19, -3, 0, 18, -11, -10, 26, -14,
   -22, 12, 22, -6, 23, 11, -49, 26,
   0, 31, 3, -25, 44, 34, 11, -4,
   -18, 49, -7, 7, -35, 47, 25, -6,
   29, 16, -3, 39, 30, -6, -19, 3,
   -48, 31, 12, 42, -8, -13, 2, -24,
   -39, -29, 5, 2, 40, 29, 55, 2,
   11, -35, -16, -20, 30, 24, 22, -20,
   39, -4, -21, 26, -8, 31, -44, 33,
   28, -36, -43, 22, -12, -15, -17, -8,
   41, -12, 43, -21, -14, 28, 0, 42,
   15, 25, -36, 43, -14, 39, 54, 35,
   -51, -16, -5, 1, -9, 11, 36, 22,
   -21, 16, 28, -59, -38, -35, -27, 24,
   -30, 3, -31, -42, -20, -9, 23, -40,
   -16, -10, 28, 12, 19, -45, 26, 21,
   -24, 17, -42, -59, 53, -17, 16, 23,
   43, 7, -22, 41, 63, 32, -1, 11,
   -35, -6, -18, 24, 19, 21, -24, 25,
   5, 49, -46, 18, -7, 1, 15, 9,
   73, 15, -48, -54, -39, -8, 33, 13,
   -36, -12, -3, -20, 25, -47, -35, 17,
   29, -5, -18, -2, 41, -7, -19, 33,
   -9, -29, 53, -28, 1, 28, -1, -6,
   -4, 61, 12, -54, -7, 3, -19, 25,
   38, -56, -1, 6, 3, 24, 56, -1,
   -36, -37, 11, -22, 12, -40, 11, 37,
   38, -60, -26, 3, 38, -16, -4, 46,
   34, 32, -36, 41, -29, 31, -35, -13,
   -46, 33, 19, 33, -39, -3, -16, -9,
   36, -4, 35, 7, 17, -3, -36, -13,
   -18, 42, 29, -27, -10, 45, 7, -42,
   -15, 24, 9, 17, 4, 26, 21, -9,
   21, 26, -62, -17, 7, -7, 30, 8,
   29, -33, 16, 55, 32, 39, -36, 26,
   6, 28, -19, -31, 24, 26, 38, 14,
   31, -10, 20, -30, 43, 23, 44, 4,
   31, -23, 32, 23, -5, 38, 0, 65,
   -12, 36, 59, -7, -15, 46, 18, 21,
   16, 4, 15, 18, -16, 3, 42, 25,
   -8, -22, -26, -30, 28, -24, -32, 23,
   37, -7, -36, -14, 22, 10, 17, 1,
   -39, -44, 6, -4, 7, 27, 51, 5,
   -14, 28, 38, 17, 18, 29, 28, 23,
   1, -24, -31, 57, -26, -23, 9, -8,
   8, -23, 1, 26, -26, -13, -32, 13,
   24, -42, 20, 17, -18, -13, -24, 53,
   -32, -35, 3, 1, -10, 29, -19, -23,
   21, -37, -10, -22, 48, 20, -8, -10,
   -5, -30, -1, 16, -21, 25, -32, -23,
   -17, -35, 2, -30, -23, 1, 9, 32,
   -53, 23, 12, 16, 56, -41, -3, -16,
   28, 43, -14, 38, 20, -19, 50, 28,
   -22, 12, 37, 19, 12, -16, -7, -13,
   3, -24, 13, 6, 29, 58, 19, 33,
   -11, -10, 11, -29, 19, -29, -23, -37,
   33, -32, 23, 15, 9, -16, -16, 5,
   -45, -5, 1, 29, 21, -20, 34, 20,
   32, -34, -49, -1, 7, -23, -17, 5,
   -6, 12, 18, -23, 0, 41, 17, 10,
   0, -16, 48, -27, 34, 27, 36, -20,
   -26, -9, 1, -22, -11, 7, -25, -2,
   -22, -17, 5, 24, 15, -30, 6, -15,
   17, -10, -8, 33, 22, 48, 12, -9,
   15, 8, -37, -7, -24, 29, -24, 37,
   -41, 38, -14, 33, -46, -14, -27, 31,
   -21, -9, -37, -49, 9, -13, 2, -26,
   -40, -13, -4, 6, 6, 14, -6, 40,
   17, 9, 37, -27, -5, 8, 13, 5,
   -15, 5, 7, 37, -27, -8, 12, 19,
   3, -21, 8, 6, -21, 17, -15, -44,
   -18, -11, -24, 1, 61, 10, -19, -29,
   -28, -6, 8, 31, -18, -24, -23, 17,
   15, 20, -25, -4, 10, 37, 1, -3,
   64, 29, 1, -11, -32, 0, 18, -34,
   -28, -20, -9, 23, 23, -46, 18, 0,
   4, -1, 7, -42, -1, -43, -14, 22,
   33, 36, -26, -45, 11, -39, 13, -13,
   -42, -18, -40, 37, -19, 19, -25, -1,
   23, -1, 13, -31, -36, 13, 39, 24,
   13, 9, 12, 31, 14, -48, 17, -18,
   -12, 33, -22, -8, 8, 21, -15, -11,
   -5, 59, -7, 6, 41, -14, 16, 27,
   -8, -24, 30, 4, 11, -20, 41, 2,
   6, -4, 9, 15, 44, 14, -37, 37,
   30, -24, -53, -39, 28, -45, 24, -25,
   13, 32, 35, 11, 34, -18, 1, 21,
   -39, -20, 5, 3, -5, 52, 6, -20,
   -17, 2, -14, 22, 18, 22, 7, 4,
   4, 29, 50, 13, -17, 20, -38, -34,
   6, 20, 6, 26, -16, 34, -2, -38,
   16, -3, 10, 4, -37, -5, -36, 14,
   -52, 1, 53, 43, 1, 1, -7, 40,
   -16, 1, -4, 13, 0, -9, -42, -16,
   17, 15, 21, 31, -15, -8, -23, -24,
   -32, 13, -12, -16, -43, -7, -3, -30,
   35, -1, 5, -43, 19, 7, -13, 18,
   -51, -9, 10, -3, 28, -7, -39, 27,
   -35, 21, 12, 2, 18, -26, -5, -36,
   9, 43, -2, 12, 24, -9, -34, -17,
   38, 5, 31, 1, 28, 39, -48, -20,
   4, -1, 15, 3, -25, 17, 32, 30,
   -34, 4, -19, 6, -37, -36, 34, -21,
   23, 3, 2, -17, -18, -11, 18, -6,
   -5, -9, -9, 9, 58, -29, -37, -39,
   -49, 2, -7, 17, 15, 34, -11, -29,
   -39, -7, 38, 2, 31, 21, -18, 52,
   22, -28, -18, 8, -29, -16, -27, -43,
   34, -29, 31, 21, -32, -6, 13, -15,
   -36, 35, -17, 0, -1, -23, 16, -10,
   -61, -14, -2, -4, -40, -36, -5, 19,
   16, 4, 23, -44, -3, -5, -17, -24,
   9, -2, -41, 45, 41, -3, 11, 47,
   2, 23, -17, 43, -12, 34, -19, -1,
   7, -30, 25, -21, 24, 1, -24, -17,
   -8, -44, 57, 16, -49, -4, -12, 26,
   7, -21, -7, 43, 24, 9, 51, -28,
   -20, -4, 22, -5, 16, -1, 43, -19,
   9, 1, 43, -21, -1, 15, 19, -44,
   38, -50, 0, -7, -9, -15, -26, -38,
   -56, 2, -32, 24, 22, 15, 12, -14,
   -8, -22, 47, 4, -36, 24, -18, -13,
   -2, -2, -44, -18, -14, -39, 0, 33,
   -10, -12, 12, 2, 16, 5, 27, 41,
   -26, -18, 26, -19, 7, -32, -20, -33,
   20, 28, 22, -32, 38, -23, -3, -20,
   -3, -33, 3, 24, -50, -49, -48, 2,
   -34, 22, -15, -6, 40, 42, -5, -31,
   29, -37, 13, 2, 19, -1, -11, 8,
   15, 26, -67, 25, 46, -28, 49, -27,
   42, 26, 50, -40, -42, -31, 7, -44,
   -8, -26, -16, -22, 43, 26, 31, 24,
   -10, 25, -26, -26, -41, 41, -47, -21,
   -22, 5, -34, -53, 14, 18, -13, 4,
   6, 37, -24, 13, -5, 36, 11, 3,
   37, -21, -8, 13, -22, -19, -20, 19,
   -1, -22, 52, 18, 8, -25, 13, -17,
   29, 20, -49, 14, 38, -40, 7, -36,
   17, 16, -27, 35, -43, 43, 42, 6,
   47, -9, 49, 70, 13, 20, 15, 7,
   -35, -7, 1, -13, -10, 14, 29, 9,
   -23, 39, 8, 20, 37, 15, 28, 33,
   -27, -24, -40, 9, 0, -23, 25, -37,
   9, 27, -29, 19, -46, 13, -23, 31,
   14, -44, 20, -10, 4, 3, 2, -24,
   -21, 37, -2, -15, 9, -2, -14, 11,
   -3, -23, -2, 29, -7, 32, -11, 25,
   11, 33, 31, 7, 46, -21, 28, 4,
   -30, -45, 36, -20, 20, 7, 51, 5,
   21, 2, 8, -18, -13, 22, -18, 45,
   9, -10, 37, 22, -24, -7, -31, 27,
   -9, 43, -27, -13, -11, 13, 27, -37,
   43, 26, -18, -35, -39, -27, 7, 23,
   46, 1, 30, -16, -13, 23, -5, -14,
   -5, -53, 39, -27, 18, -17, -47, 28,
   23, 5, -19, -31, -36, -24, 10, -31,
   -22, -26, 36, -14, 6, 41, 32, 25,
   -1, 26, -7, 29, -2, -16, -15, 5,
   -42, -9, -5, -14, -57, -2, 42, -22,
   -42, 7, -1, 22, 20, 58, -35, 13,
   -34, -9, 2, 27, 19, -6, 1, 3,
   34, 51, 30, 13, -59, 27, 7, 57,
   37, 14, -21, -9, -10, 14, 29, 9,
   -30, -8, -4, 16, 23, -28, -7, 4,
   12, 18, 17, 29, -17, -13, -9, 9,
   5, 58, -31, -11, 37, 35, 5, 2,
   31, 36, 16, 67, -24, -12, -1, 25,
   -26, -16, 13, -31, -6, 30, 17, -20,
   13, -36, 0, 52, -41, 30, 4, -43,
   8, -8, 28, 45, -35, 45, 19, -4,
   -18, 22, -32, -28, -35, 37, 14, 29,
   5, -42, -15, 25, -19, -23, 36, -41,
   -32, -7, 7, -24, 19, 48, -18, 9,
   43, -48, -28, -35, -22, 10, -46, -7,
   33, 6, 26, 45, -25, -18, 27, 40,
   29, 15, -9, 6, 26, 3, 9, 53,
   -28, 33, 24, 1, 10, -24, 58, 15,
   -14, 17, -19, -24, 49, -38, 52, 24,
   -8, -19, 20, -37, -48, -15, -1, 2,
   43, 23, -10, 37, 1, 30, -21, 0,
   -5, -5, -8, 4, 8, 39, 28, -28,
   0, -2, 4, -19, -7, 8, 15, 24,
   -6, 18, -28, 4, -21, 15, 41, 35,
   4, -2, 13, 52, 28, -48, -23, -11,
   38, -31, 2, 35, -27, -11, 16, -17,
   43, 7, 12, -30, -4, -26, 4, -32,
   33, -16, -25, -13, 21, 11, 10, -37,
   -3, -19, -56, -50, -13, -2, 49, 1,
   -21, 30, -36, -20, 0, -6, -24, -43,
   7, -8, -47, -1, 41, 48, 17, 4,
   -28, 6, -30, 15, 16, 41, -12, -8,
   38, -30, -4, 39, 6, -8, 2, -12,
   32, -28, -7, -43, 26, 31, 0, 5,
   -19, -14, 19, 47, -10, 6, 36, 0,
   10, -8, 2, 26, 24, 21, 24, 37,
   45, 54, -36, 7, 43, -29, -3, -28,
   -32, -15, -29, -18, -24, 44, 31, -19,
   -7, -32, -8, 30, -28, 6, 42, -31,
   -8, -44, -10, -6, -9, 49, -28, 24,
   2, -14, -19, 8, 21, -21, -20, -19,
   17, 25, -46, 38, 6, 14, -26, -16,
   0, 39, -30, 44, 32, -12, 16, 6,
   12, -27, 30, 24, -26, -26, -14, 10,
   -6, -27, -5, -24, 18, -39, -26, -9,
   36, -45, -23, 24, -7, -15, -27, 21,
   10, 20, -28, -39, 20, 2, -18, -18,
   21, -28, -20, -7, -14, -16, -43, 41,
   -14, -22, 4, -15, 29, -4, 22, -5,
   18, -7, 46, -30, 30, -17, 0, -23,
   16, 20, -31, -31, -43, 36, 39, 2,
   17, -5, -24, 20, -6, 19, 24, 16,
   55, -31, 31, 16, 39, 23, -33, 37,
   -31, 13, 36, 23, -43, -14, 28, 11,
   13, 6, -29, 3, 22, 16, -20, 13,
   17, 7, 33, -32, -18, -11, -18, -1,
   32, -21, 37, 11, -20, -8, 20, 8,
   -21, -46, 2, 25, -7, -35, 16, 31,
   10, -34, -23, 21, -36, 31, 32, 10,
   0, -39, 8, -40, -17, -3, 42, 36,
   14, -17, -22, -23, 8, 41, -7, -13,
   -11, 12, -9, -33, -38, 40, -34, 18,
   4, 24, 42, 20, 23, -28, 14, -7,
   -23, 37, 39, -32, -1, -21, 12, 28,
   -20, 4, 18, -21, -30, 52, -14, -33,
   -48, 24, -26, 26, 9, 24, -38, -17
};

static const rnn_weight noise_gru_recurrent_weights[6912] = {
   -17, 16, -36, -1, 7, 9, -17, 26,
   -26, -16, -43, -9, 16, 19, -23, -27,
   -1, -37, -39, -38, 5, -2, 60, 23,
   -20, 18, 16, 14, -14, -14, -39, -4,
   -30, 22, -3, 13, 33, -26, -10, 25,
   -12, 7, 17, -40, -32, -30, -41, 22,
   19, -11, -9, 18, -18, -15, 8, -15,
   -7, 8, -24, -38, 18, -9, 1, -44,
   33, -29, 5, -5, -9, 36, 2, -9,
   -6, -5, 44, 5, -23, 32, 4, 49,
   -22, 10, -21, 29, 11, -16, 28, 16,
   -1, 30, -37, -19, 10, 4, -13, -4,
   15, 39, -5, 39, -8, -21, 0, -6,
   -23, -6, 18, -4, 19, 5, -18, -11,
   11, 11, -42, -4, 6, 19, 16, 26,
   -40, 66, -9, 4, -8, -36, 16, -6,
   16, -3, 19, 33, -8, 17, 21, -47,
   43, -46, 9, -3, 23, -15, -43, -18,
   -11, 20, -27, 14, -31, -9, 6, -29,
   4, 13, 4, 25, 59, -21, 18, 34,
   -1, -6, -10, -28, -40, -29, 30, 32,
   -39, -17, -7, -21, 31, 3, -21, -26,
   -15, -15, 58, -6, 3, 5, 1, 43,
   -25, 32, -49, -2, 8, -9, 36, -45,
   29, 23, 19, -11, 45, 28, -15, 22,
   -4, -1, 11, 2, 11, 30, 1, 45,
   13, 29, -1, 17, -41, -5, 50, 40,
   2, 3, -25, 36, 12, 7, 32, 22,
   -21, -15, 63, -26, -12, 7, -39, -25,
   -35, 10, 8, -17, -5, 78, 20, -11,
   32, 13, 46, 4, 4, 35, -11, 4,
   0, 14, 11, 39, 2, 6, -4, -18,
   -12, 12, 30, -6, 5, -21, -26, 38,
   63, 28, 15, -3, -1, -10, 44, -31,
   28, -8, 3, 6, 33, 13, -32, -20,
   -9, -27, -32, 35, 36, 1, 33, 31,
   55, 15, -12, 1, -10, 27, 32, 18,
   -40, 16, 11, 16, 30, -18, 33, 7,
   -46, 4, -16, 4, -22, -10, -12, 6,
   3, -17, -43, -56, -26, 48, 29, 10,
   -7, -25, -2, 15, 39, 18, 21, 22,
   9, 25, 16, -36, 49, -7, 5, -30,
   8, 22, 4, -27, -6, -27, -25, -23,
   16, 17, 11, 15, 16, 25, -11, 26,
   -32, -37, 67, -18, 5, 16, 14, -17,
   7, 29, -5, 19, 31, 11, -38, 15,
   25, 42, -36, -13, 5, 34, 1, 30,
   -7, 33, -2, 37, 23, 12, -20, -18,
   -19, -27, 39, 17, -29, -1, -22, -8,
   -53, 3, 26, 10, 37, -22, 3, -9,
   44, -12, 37, 47, -46, 26, 8, 10,
   -26, -18, -19, -21, 52, 24, -30, 8,
   -17, 19, 8, -6, -23, -1, 30, -5,
   18, -17, -5, -1, -4, 20, -5, 10,
   -33, -10, -4, -31, -41, -25, 14, -7,
   13, 24, -18, 15, -11, -33, 35, -5,
   -1, 17, -18, -29, -31, -11, 2, -19,
   19, 6, 8, 29, 34, 37, -4, -1,
   -11, -9, 13, 13, -27, -22, -28, -11,
   2, -2, 27, -37, -1, 27, -16, 25,
   24, -13, -17, 37, 10, 17, 32, -25,
   5, 31, -18, -31, 14, -16, -61, -1,
   -17, 11, 41, 35, 21, 11, 9, 20,
   18, -11, 21, -18, 17, 18, -2, 5,
   24, -1, -18, 31, 12, 22, -37, 3,
   28, -1, -14, 44, 15, -14, -2, -22,
   -8, -6, -1, 7, -15, 2, 30, 1,
   -33, -24, 15, -12, 20, -10, 5, 8,
   -16, -10, -19, 3, 57, 23, -6, -52,
   -3, 5, -12, 6, -20, -4, 20, -20,
   48, 29, -41, -24, 9, -15, -9, -30,
   -26, -27, 4, 23, -30, 48, 50, 24,
   24, -3, 0, -23, 0, 0, 34, -7,
   -8, 14, -18, 2, 2, -28, 61, -12,
   -53, -10, -1, -40, -26, 19, -19, -20,
   1, -9, 41, 23, -2, -17, 27, 12,
   15, -72, -9, -4, -20, -6, -15, 39,
   24, -50, 2, -10, -31, 18, -20, -30,
   -18, 20, 0, -20, -13, 18, -41, 14,
   -1, 35, -18, 27, 10, -3, -7, -19,
   25, 1, -6, 4, 15, -2, 42, 3,
   -9, 12, 17, -2, -35, 33, -10, 25,
   -1, 33, 38, 4, 14, -6, 14, -3,
   9, -24, -13, -10, 23, 2, -15, -35,
   25, 22, 16, -5, 0, -2, 39, 2,
   -1, -22, 18, 14, -65, 25, 1, 12,
   18, 6, 34, 31, -8, -36, -5, 11,
   14, 29, 8, -15, 20, 5, -1, 3,
   22, 10, 20, -26, 13, -25, -22, -36,
   11, 13, -12, 8, 4, 39, -5, 3,
   11, 9, 36, 9, -44, 3, -2, 12,
   39, 21, -25, -16, -7, -30, 6, 25,
   2, 9, -40, 33, -12, 3, -41, -56,
   -50, 32, 2, 11, -33, -14, -4, -13,
   22, -36, -8, -30, 34, 17, -7, 20,
   -16, 10, -9, -6, -1, 24, 10, -9,
   23, 27, -2, -10, -26, -10, -18, -65,
   15, 2, -34, 39, 49, 17, 3, 29,
   -13, -6, 30, -8, -13, -31, -21, -1,
   7, 32, 27, -18, -18, -31, 20, 3,
   -42, -4, -22, 39, -35, 22, 4, 3,
   -13, 55, 5, 6, 23, -8, -17, -14,
   9, -30, -9, 0, -2, -11, -65, 0,
   10, 12, -8, 17, 29, 26, 12, -15,
   5, 22, -70, 4, 28, 9, 15, 67,
   -19, 4, -25, -8, -35, 23, -5, 12,
   -14, -55, 12, 27, -17, -36, -32, 2,
   -8, -4, 13, 32, 13, 29, 39, -66,
   12, -13, 9, 2, 10, -6, 2, -19,
   -21, 14, -50, -45, -13, -4, -7, 15,
   -28, 5, 64, -15, 1, -24, 12, 29,
   -3, -5, 12, -17, 0, 39, 19, -4,
   -26, 9, -21, 20, 1, -15, -4, 8,
   -39, 35, 0, -3, 0, -3, -9, 41,
   7, 40, 27, 2, 5, 33, -13, 39,
   34, -10, -26, 29, 28, -9, -6, -8,
   -6, 9, 24, -2, -14, -30, -26, 10,
   1, -39, -30, -30, -5, 12, 30, 26,
   21, -18, -17, 62, 12, -23, -25, 9,
   -11, 2, -15, 7, 6, 8, -22, -5,
   -23, -5, -17, -8, 43, -51, 5, -25,
   5, -8, 42, -19, -29, 21, 14, 44,
   59, 27, 9, -24, -3, 8, -31, -20,
   -39, -33, 35, -4, -6, 6, 1, 29,
   35, 1, -2, -16, -26, -15, 4, 0,
   -11, -22, 0, -3, -5, 0, -14, -9,
   -35, -32, 33, 2, 1, 6, -13, 14,
   -13, 45, 31, -8, 23, 13, -14, -2,
   12, -10, 11, 36, -60, 2, -20, -13,
   5, 20, -22, 22, 18, 34, -13, 0,
   18, 13, 21, -22, 10, -10, -32, -8,
   -8, -5, -22, -19, 19, 13, -6, 31,
   -8, 30, -41, -20, -9, 61, -23, 5,
   5, 3, 29, -8, 16, 2, -3, 32,
   -21, 23, 7, 22, -13, 56, 21, 20,
   24, 5, 32, -11, -5, -12, -31, -4,
   -6, -10, 49, -21, -9, 17, 23, 28,
   19, -2, 6, 14, 25, -2, -34, -18,
   -1, 26, -1, 14, 45, -17, -13, 25,
   16, 24, 54, -9, -21, 4, -33, 30,
   0, 34, 33, 16, -3, 28, 7, 29,
   52, 3, 3, 8, 5, 42, -4, -3,
   5, 52, -18, 37, 17, -14, 24, -13,
   -1, -27, 4, -18, -3, -9, -22, -37,
   -1, 11, -19, 17, -26, -8, 10, -12,
   -19, 2, 38, 19, -15, 9, -34, -19,
   -7, -6, 2, -7, -14, 12, -22, 17,
   -7, -29, -1, 4, 4, 21, -4, -18,
   12, -27, 46, 28, 6, -38, -9, 1,
   6, 12, 19, 44, -15, 5, -20, -10,
   -31, -28, -27, 4, -21, 28, 53, -24,
   -13, -3, 17, 2, -33, 10, -2, 10,
   -5, -21, 1, 36, -5, -22, -8, -18,
   2, 16, -28, 3, -15, -36, -10, 21,
   24, 1, 15, 3, -17, 27, -14, 28,
   -8, 7, 46, -14, -17, 7, -8, -22,
   -36, -7, -11, -8, 13, -46, 50, -42,
   9, 0, -7, -6, -13, -20, -16, -3,
   14, 4, -8, -18, 13, -8, -24, 17,
   -12, 5, 15, 2, -2, 29, 5, 0,
   -39, -30, 47, 23, 5, -21, 32, -3,
   10, -17, 20, 21, -20, 23, 11, 4,
   -44, 47, 12, 2, 18, 12, 6, 45,
   3, 22, 36, -40, 22, -27, -4, -21,
   -19, 19, 0, -4, 7, -24, 12, -1,
   -12, -22, -20, -17, 14, 8, 4, 10,
   -5, -3, 26, -52, -47, -20, -15, 15,
   2, -3, -20, 37, 25, -35, -35, 2,
   -2, 14, 9, 7, 26, 2, 9, -19,
   -35, 19, -32, 2, 35, 12, -6, 6,
   25, -5, 25, 49, -36, 24, 41, 8,
   10, 2, -14, -17, -10, -7, 32, 5,
   -21, 24, -14, 21, -2, -38, -8, 51,
   25, 3, 1, -26, -9, 29, -34, 7,
   32, -28, 6, -14, 34, 56, 32, 14,
   -8, 6, -18, 9, 41, 25, 12, 20,
   26, 8, 49, 52, 11, 8, -17, 25,
   -23, 3, -44, 28, -27, 6, -11, -36,
   15, 4, 18, -15, -29, -4, 1, 26,
   -15, 4, 8, 35, -5, -21, 20, 3,
   14, -12, 21, 7, -5, -3, -40, 27,
   -7, -9, -38, -6, -11, -12, -10, -33,
   7, 21, -32, -65, 4, 10, 18, -16,
   22, 14, 2, -1, 7, 9, 9, 9,
   25, 27, -34, -31, 6, -6, -21, -37,
   32, 36, -4, -5, -8, 6, 52, -14,
   12, -22, 6, 11, 10, 30, -3, 20,
   -3, -11, 0, 3, 0, 31, 48, -21,
   2, -2, -28, 12, 22, 17, -23, 43,
   -45, 37, 3, 4, 17, 7, -3, -7,
   24, 22, -34, 28, 6, 28, -5, 50,
   22, -47, 8, -33, 62, 9, -2, 29,
   33, 13, 36, -26, 1, -21, 7, 8,
   12, -10, 25, 17, -32, -11, -17, 0,
   11, 11, -3, -2, -23, -2, -7, 18,
   -24, -6, -42, 4, 8, -22, -12, 11,
   19, -1, -2, 2, 12, 10, -31, -13,
   -14, -13, 20, 33, -55, 17, 31, -11,
   -15, 17, 25, -11, 11, -23, 53, -51,
   10, -14, -10, -6, 27, -10, 32, -3,
   -80, -44, 2, 14, -5, 48, 11, -25,
   -6, -21, -44, 4, -19, 11, 2, 28,
   10, -32, 8, 4, 36, 14, -34, -1,
   -54, 18, 22, -27, -21, -45, 49, -47,
   -49, -41, -18, -29, 11, -27, -17, -44,
   -10, 3, -24, 15, -20, -2, -13, 7,
   52, -7, 20, 13, -12, 30, 10, -15,
   -16, 25, -43, -28, 14, -20, 39, 0,
   16, -4, 19, -11, -13, 24, -61, 21,
   16, -19, 31, 18, 30, -2, 6, 15,
   -4, 8, 13, -21, 27, 28, -19, -3,
   -37, 31, -13, -6, 41, 5, -34, 54,
   -18, 4, -7, 25, -13, -13, 5, -50,
   25, 29, -19, 23, -5, -20, -2, 50,
   23, -20, -6, 14, -5, -25, 2, -5,
   -13, -3, 12, 44, 1, -29, 31, -19,
   23, -25, 32, -3, 3, -27, -18, 2,
   -15, 26, -8, -7, 1, -2, -33, 54,
   -18, -21, -19, -5, -21, 21, 28, 19,
   23, -2, 30, -8, 12, -76, 29, 8,
   -2, -24, 29, -3, -19, -44, -24, 0,
   -14, 27, 2, -50, -4, 11, -18, -20,
   60, 23, -49, -21, -22, 17, -7, 17,
   27, 26, -13, 29, 42, 7, 31, 9,
   -46, -23, -16, 26, 14, -31, 15, 5,
   -1, 14, -6, -6, 21, 4, -4, -21,
   36, 13, -14, -6, -4, 25, 9, -2,
   -1, -29, 19, 28, 15, 15, 4, -4,
   35, -1, -3, -42, 1, 29, -45, 9,
   -16, -16, -45, -46, 50, -28, -4, 58,
   -31, -22, -32, 13, -21, -7, -36, 8,
   -11, 30, 15, -15, -2, 0, -10, 35,
   -12, 7, -11, 26, 21, -29, 0, 44,
   -4, 14, 15, 32, 22, -1, -7, 12,
   12, 17, -10, -37, -36, -4, -30, 13,
   -5, 54, 4, -19, -18, 14, -5, -13,
   -18, -16, 23, 37, 18, 14, 13, -5,
   1, 50, -31, 31, -16, -6, 15, -6,
   -15, -49, 6, -24, -8, 17, 9, -26,
   1, -9, 9, -62, 29, -46, 23, -19,
   14, -15, 14, -1, -25, -11, -8, 7,
   -19, 13, 31, 18, 29, -32, -34, 8,
   -24, -2, 6, 10, -1, -25, -31, -35,
   9, 16, -12, 3, 30, -2, 24, 20,
   6, -9, 28, 12, 1, 36, -19, 18,
   -30, -10, -10, -42, 32, 8, 37, -4,
   20, 14, 29, -3, 27, 23, -35, -25,
   24, 24, -19, 48, -11, 10, 16, 32,
   -22, 35, -8, 43, 20, 15, -7, 28,
   -21, -10, -37, -23, 16, 30, 11, -33,
   -36, -13, -21, 15, -23, -12, 7, -32,
   -45, 24, 5, -13, -28, 18, -32, 11,
   13, -7, -30, 18, 12, 1, -7, -3,
   21, -14, 12, -52, -44, -23, -20, 12,
   8, 5, -2, -31, -4, -12, -12, -40,
   34, 1, -1, 13, -29, -32, 6, -1,
   9, -22, 28, 42, -15, 24, 10, -33,
   27, 9, -12, -53, 41, 10, 6, -5,
   -3, -40, 4, -52, 11, 26, 22, -33,
   18, -55, -6, -26, 53, -19, -13, 6,
   18, 1, 29, -9, 25, 9, -12, 6,
   -14, 18, -38, -25, 8, -2, -5, 11,
   -26, -10, 24, 23, -23, -34, -24, -27,
   22, 25, 27, -2, -17, 16, -25, -5,
   18, -7, 16, -19, -20, -18, 18, 7,
   21, -40, 27, -9, 13, -20, -27, 27,
   15, -29, -17, -14, -2, -30, 3, -22,
   -25, -2, -45, 0, -5, 12, -3, 9,
   10, 31, 12, 9, -28, -29, 0, -24,
   19, 0, -41, -11, -6, -4, -5, -3,
   -4, -12, -1, 9, -8, -20, 22, 11,
   -1, 25, 19, -36, 2, -5, 11, -33,
   18, 20, 15, -32, -51, 46, -6, -30,
   -7, 17, -10, -32, -21, 5, -27, -51,
   -39, -26, 11, -3, 34, -21, -20, -17,
   -37, 29, 37, 30, 0, 11, 2, -33,
   -7, -2, 11, -23, 8, -9, -11, -6,
   35, 20, -6, 6, 8, -1, -8, 36,
   3, 1, 49, 22, 23, 12, -14, -18,
   -3, -6, 34, 61, 28, 12, 29, 10,
   -22, 5, 2, 8, 21, -16, 30, -17,
   -13, -3, 9, -11, 20, -9, -20, 23,
   14, -39, 7, -4, 23, 40, -8, 1,
   -27, 20, -21, -6, 31, 40, -34, 26,
   -29, 9, -12, -1, -9, -31, 1, -33,
   11, -10, 18, -29, 9, 9, 8, -11,
   -21, -2, 44, 6, -8, -15, -32, 37,
   -4, -11, -44, 46, -21, 33, -24, 17,
   48, -15, -10, -10, 2, -38, 23, 11,
   3, 39, 9, 11, -19, -2, 22, 20,
   -56, 3, -6, -16, -22, -23, -14, -7,
   5, -17, 3, 26, 18, 21, -7, 28,
   16, 10, 7, 7, 28, 17, -28, -54,
   -15, 68, -18, -4, 9, -9, 0, -17,
   5, -4, -7, -10, -19, 5, 1, 11,
   -6, 14, 15, -17, 3, 0, 22, -43,
   -19, -3, -30, -10, -42, 11, 8, 49,
   -52, -9, 19, 12, 4, 2, -15, -5,
   -35, 47, -30, 10, 7, 14, -20, 9,
   26, 40, -5, -27, 1, -5, -24, -32,
   -22, -31, 7, 22, 29, -10, -4, 4,
   -30, 0, -18, 20, -7, -4, 29, 7,
   -6, -15, -1, -8, 24, 5, 29, 14,
   4, 17, 9, 14, -7, -28, 33, -12,
   -9, 0, -15, -38, -43, -5, 8, -11,
   -1, 14, -53, 30, -18, -13, -23, -7,
   -12, 9, 29, 13, 26, -22, 3, -2,
   -51, 24, -26, -7, -34, -25, -20, -2,
   -20, 3, -3, -34, 26, -24, -7, -27,
   -33, -30, -10, 24, 6, -18, -2, -7,
   14, -10, -18, 13, 2, -11, -9, -29,
   -69, -4, 15, -7, 41, -2, -22, 13,
   31, -7, 24, -9, -18, 7, -13, -31,
   1, 14, -19, 39, -41, -15, 23, 11,
   3, -23, 7, -10, -7, -30, 38, 15,
   46, 9, 6, 12, 21, -3, -2, -38,
   -10, -30, 37, 11, -10, 38, 9, -5,
   -27, -22, -10, 5, 32, 28, -14, -34,
   -32, -4, 68, 7, 5, 44, 27, 47,
   3, -19, 20, 14, 5, 6, -20, -14,
   -12, 14, -2, -2, -5, -25, 9, 23,
   -26, 37, 6, -9, -6, -17, 34, -18,
   2, 2, -16, 48, 0, 16, 29, 3,
   0, 0, -18, -13, -38, -5, 25, -5,
   9, 16, -30, -47, -27, -9, 27, -19,
   -3, 11, 10, -22, -25, -15, 26, -30,
   -32, 20, 0, 0, 17, -4, 59, -18,
   8, 19, -37, -26, -10, -15, -13, -29,
   15, -40, 14, -18, 20, 2, -15, 39,
   -9, 14, -10, -45, -3, 22, -23, 22,
   -14, 7, -14, -16, 5, 25, 11, 8,
   -50, -9, -5, -2, 0, -36, 3, 27,
   -3, 1, -21, 5, 14, -3, -16, 26,
   20, -23, 4, 21, 12, -21, 21, 8,
   -44, 9, -6, 1, -19, 60, -4, 32,
   -30, 1, 11, -16, 28, 10, -24, 2,
   4, -40, 34, -23, -46, -18, 7, 6,
   -19, -21, -48, 21, -14, 25, -8, 40,
   -14, 41, 22, 7, 4, -11, -4, 0,
   -32, -5, 33, -22, -28, -14, -24, 3,
   -12, -1, -25, 29, -8, 8, -48, 23,
   -13, 1, 3, 32, 24, -64, 21, -16,
   -8, 0, 10, 26, -28, -14, 8, 27,
   12, 3, -10, 55, 0, 12, 32, -16,
   -6, 4, 26, 10, -13, 41, 31, 6,
   2, -14, -31, -41, -5, -18, 4, 20,
   -32, -14, -76, -9, 19, -29, 25, 1,
   13, -6, -11, -45, 28, 37, -12, -18,
   2, -22, 27, -19, -4, 21, 27, -35,
   -8, 30, 0, 1, 11, -17, -13, -2,
   28, 0, -8, 21, -42, 41, -4, -17,
   4, -11, 19, -6, -5, -83, 27, -21,
   -17, -21, -10, 5, -21, 24, -8, -66,
   -72, 19, 12, -5, 32, -21, 18, -3,
   35, 50, 0, -17, 24, 20, 15, 15,
   6, -11, -5, -6, 56, 14, 8, -7,
   -4, -40, 27, -6, -19, 23, -13, 38,
   -23, 65, 42, -4, -5, 9, -64, 0,
   36, -20, 9, -9, 1, -3, -30, -20,
   -34, 18, -18, 28, 29, 11, 7, -15,
   33, 6, 32, 33, -3, -8, 25, 33,
   -36, -22, 47, -4, -38, -10, -14, 8,
   -44, -29, -18, -6, 25, -10, 25, 6,
   -5, 13, 5, 32, -21, -10, -6, 13,
   35, -12, 3, -21, -16, 19, -13, -2,
   -26, 23, 40, -14, -38, 29, -4, -44,
   25, 3, -6, -1, 43, -2, -19, -8,
   19, 2, -15, -25, 20, -35, -28, -10,
   13, 3, 6, 3, -34, 26, -16, 16,
   65, -4, 31, 14, 0, 9, 57, 11,
   27, -2, -4, 6, 2, 28, -23, -33,
   36, -5, -1, 2, 14, -24, 0, -9,
   -5, -15, -22, -11, -2, -4, 19, 4,
   0, -16, 17, 29, -5, -37, 23, 8,
   4, 4, 31, -32, 28, -17, 15, -22,
   21, -41, -32, 32, 9, 28, -34, 6,
   -22, 16, 45, -5, 28, 55, 6, -5,
   20, -16, -12, -3, -15, -1, -2, -38,
   -36, -18, 31, 1, 11, -16, 35, 0,
   19, -33, -23, 1, 4, -3, 8, 1,
   -17, 67, -1, -29, 18, -4, -2, -6,
   -18, 20, -2, -15, -14, 18, -57, 32,
   -3, -33, -25, -5, 30, 29, 5, -7,
   20, 27, -32, -5, -9, -8, 15, -6,
   9, -26, 38, -51, 8, -6, 55, 0,
   -14, 39, 4, -13, 1, -3, -13, -31,
   -15, 9, -18, -36, 19, -2, 2, 9,
   23, 8, 21, 30, -21, 33, 4, 17,
   25, -22, 31, -25, -5, -34, 9, 3,
   -11, -6, 0, 31, 27, 30, -12, -8,
   -2, -19, -33, -14, -5, 6, 19, 13,
   13, 13, 21, -35, 41, 17, -6, 30,
   -7, 1, 4, -17, 21, 14, 7, 9,
   -20, -17, 32, 14, -16, 70, 27, 14,
   -24, -14, 15, -17, -15, 4, 19, -26,
   7, -32, 56, -3, -23, -15, -8, -4,
   -3, -39, 29, -34, 5, 16, 0, -12,
   -8, -29, 29, -48, 5, -41, 7, -29,
   -53, 5, 42, -33, -57, -25, -19, 4,
   7, -31, -32, 24, 14, -5, -74, -12,
   38, -14, 0, 31, -5, -2, 9, 4,
   -2, 7, 3, 11, -24, 22, 17, 26,
   30, 38, -45, -22, 18, -46, 33, 22,
   -17, -29, -4, 17, 2, 5, -19, -35,
   38, -12, -2, -11, 22, -5, -34, 32,
   -29, 20, 12, -25, 27, 6, 19, -15,
   22, 13, -4, 13, 30, 49, 32, 10,
   28, 31, -19, -3, 38, 24, 31, -11,
   -15, 16, -8, 0, -30, -3, -36, -13,
   20, 5, 43, -3, 10, 23, 5, -2,
   -13, -31, 20, 11, 40, -25, -41, 2,
   -10, 41, -17, 20, 28, 22, -7, -37,
   21, 18, 29, -19, -3, -18, 2, -14,
   -7, 1, -4, 20, 14, -1, -28, -24,
   26, 29, -37, -3, -23, -33, 23, 10,
   -16, -2, -27, 22, 25, -33, -3, -10,
   13, -1, -29, -47, -10, 5, 5, -8,
   21, -48, -22, 32, 17, -25, -11, -9,
   -13, -18, 1, 15, 15, -20, -64, 32,
   -18, 11, -9, 1, 5, -6, -1, -9,
   45, -4, 40, -28, 54, 16, -26, 19,
   -32, -4, -1, -53, -19, -7, -20, -5,
   4, 25, 34, -9, 22, 19, 0, 11,
   -16, -22, 0, -29, 5, -26, 31, 5,
   -13, 69, -45, -21, 12, -7, -23, -4,
   7, -65, 9, -7, 5, 6, 9, -16,
   -11, 33, 25, 16, -7, 5, -16, -14,
   12, -18, 49, 39, 6, -6, 24, -32,
   26, 4, -22, 20, 1, -18, -31, 1,
   0, 4, 63, 3, -10, 24, -12, -27,
   23, 25, -23, -1, -12, 16, 33, 12,
   9, 0, 13, 15, -30, -13, -29, -49,
   42, 3, 17, -11, 15, -10, 1, -34,
   -15, 3, -15, 27, 24, -34, 3, 12,
   -26, 29, -17, -4, 17, -21, -18, -5,
   15, -34, -9, 5, -11, 2, 16, -3,
   -13, 7, 30, 3, 12, -17, -39, -24,
   15, 13, -30, -20, 8, -22, 7, -9,
   16, 42, -51, -12, -28, 5, 57, 32,
   32, 17, -13, 1, 17, -6, -4, 58,
   8, -17, 0, 5, -6, -2, -6, -6,
   34, 22, 8, 20, 10, -21, 45, 12,
   -16, 4, -1, 24, 15, -1, -5, 26,
   29, 11, 21, 29, 18, -13, 15, -15,
   18, 42, 39, 35, 25, 48, 40, -44,
   9, -7, 45, 34, 12, 78, 1, 19,
   -35, 17, 0, 18, 20, -33, 20, 16,
   43, 24, -7, -14, -24, 0, -19, -38,
   40, 30, 20, 13, -4, 32, -30, 15,
   27, -22, 39, 10, -21, -30, 15, -5,
   -20, 16, 46, -7, 9, 3, -4, 34,
   -12, -63, 40, 8, 7, 5, -6, 28,
   5, -69, -44, -18, -14, 27, 31, -21,
   30, 13, 0, -30, -3, -2, 7, -8,
   -21, -8, -38, 17, -16, 12, 2, -7,
   -4, 9, -9, -30, -37, 42, -19, -35,
   -4, 5, -14, -41, 21, -8, 23, 4,
   -15, -22, 47, -47, 35, -14, 9, -36,
   28, 1, 4, -18, 3, -30, 1, -15,
   -31, -26, -22, -8, 7, -3, -11, 54,
   13, -7, 1, -5, 29, 26, -26, 24,
   -22, 20, -21, 1, -27, -30, 1, 6,
   -57, -21, 30, 23, -37, 16, 36, 34,
   13, 20, 34, -13, 58, 44, 10, -28,
   31, 19, -49, 34, 21, 3, 2, 11,
   -23, -18, -16, -11, -19, -28, 28, -26,
   24, 20, 1, 0, 15, -25, -20, 18,
   -44, 16, 5, 14, 13, -7, 18, -6,
   -22, -8, 23, -26, -2, -15, 40, -16,
   17, 17, -22, 15, 0, 19, -8, 0,
   -40, 15, -26, -55, -37, 9, 11, -25,
   -3, 33, -42, -18, -24, -38, -3, -6,
   -18, -30, -6, -8, 17, -32, 30, 24,
   -40, -1, -12, 21, 9, -20, 38, -4,
   40, -12, -13, -16, -12, 50, 14, -23,
   9, -48, 34, 20, 45, -30, -30, -48,
   -27, -15, 28, 16, -20, -3, 20, 35,
   14, -15, -38, 10, 70, 18, 8, -31,
   3, 11, 19, 38, -11, -11, -3, -18,
   66, -12, 4, 13, 22, -32, 19, -22,
   -1, -21, 25, 2, -11, -14, -12, -15,
   -15, -10, 0, -10, 11, 17, -30, -2,
   37, 24, -25, -14, -3, 15, -10, 35,
   21, 6, -18, 19, 29, 4, -54, 15,
   -2, 9, 28, -1, -26, 27, 12, -3,
   10, 19, 41, 22, -10, 12, 22, -6,
   -5, 46, -13, -17, -30, 12, 17, -21,
   3, 6, 10, -25, -8, -16, 69, 37,
